let trainedModel = { "trainDataSize": 1, "batch": 0, "parameters": 2294, "layers": [{ "input": { "data": [[[0, 0, 0, 0, 0, 0, 0, 0, 0, 0, 0, 0, 0, 0, 0, 0], [0, 0, 0, 0, 0, 0, 0, 0, 0, 0, 0, 0, 0, 0, 0, 0], [0, 0, 0, 0, 0, 0, 0, 0, 0, 0, 0, 0, 0, 0, 0, 0], [0, 0, 0, 0, 0, 0, 0, 0, 0, 0, 0, 0, 0, 0, 0, 0], [0, 0, 0, 0, 0, 0, 0, 0, 0, 0, 0, 0, 0, 0, 0, 0], [0, 0, 0, 0, 0, 0, 0, 0, 0, 0, 0, 0, 0, 0, 0, 0], [0, 0, 0, 0, 0, 0, 0, 0, 0, 0, 0, 0, 0, 0, 0, 0], [1, 1, 1, 1, 1, 1, 1, 1, 1, 1, 1, 1, 1, 1, 1, 1], [1, 1, 1, 1, 1, 1, 1, 1, 1, 1, 1, 1, 1, 1, 1, 1], [0, 0, 0, 0, 0, 0, 0, 0, 0, 0, 0, 0, 0, 0, 0, 0], [0, 0, 0, 0, 0, 0, 0, 0, 0, 0, 0, 0, 0, 0, 0, 0], [0, 0, 0, 0, 0, 0, 0, 0, 0, 0, 0, 0, 0, 0, 0, 0], [0, 0, 0, 0, 0, 0, 0, 0, 0, 0, 0, 0, 0, 0, 0, 0], [0, 0, 0, 0, 0, 0, 0, 0, 0, 0, 0, 0, 0, 0, 0, 0], [0, 0, 0, 0, 0, 0, 0, 0, 0, 0, 0, 0, 0, 0, 0, 0], [0, 0, 0, 0, 0, 0, 0, 0, 0, 0, 0, 0, 0, 0, 0, 0]], [[0, 0, 0, 0, 0, 0, 0, 1, 1, 0, 0, 0, 0, 0, 0, 0], [0, 0, 0, 0, 0, 0, 0, 1, 1, 0, 0, 0, 0, 0, 0, 0], [0, 0, 0, 0, 0, 0, 0, 1, 1, 0, 0, 0, 0, 0, 0, 0], [0, 0, 0, 0, 0, 0, 0, 1, 1, 0, 0, 0, 0, 0, 0, 0], [0, 0, 0, 0, 0, 0, 0, 1, 1, 0, 0, 0, 0, 0, 0, 0], [0, 0, 0, 0, 0, 0, 0, 1, 1, 0, 0, 0, 0, 0, 0, 0], [0, 0, 0, 0, 0, 0, 0, 1, 1, 0, 0, 0, 0, 0, 0, 0], [0, 0, 0, 0, 0, 0, 0, 1, 1, 0, 0, 0, 0, 0, 0, 0], [0, 0, 0, 0, 0, 0, 0, 1, 1, 0, 0, 0, 0, 0, 0, 0], [0, 0, 0, 0, 0, 0, 0, 1, 1, 0, 0, 0, 0, 0, 0, 0], [0, 0, 0, 0, 0, 0, 0, 1, 1, 0, 0, 0, 0, 0, 0, 0], [0, 0, 0, 0, 0, 0, 0, 1, 1, 0, 0, 0, 0, 0, 0, 0], [0, 0, 0, 0, 0, 0, 0, 1, 1, 0, 0, 0, 0, 0, 0, 0], [0, 0, 0, 0, 0, 0, 0, 1, 1, 0, 0, 0, 0, 0, 0, 0], [0, 0, 0, 0, 0, 0, 0, 1, 1, 0, 0, 0, 0, 0, 0, 0], [0, 0, 0, 0, 0, 0, 0, 1, 1, 0, 0, 0, 0, 0, 0, 0]]], "shape": [2, 16, 16], "rank": 3 }, "type": "conv", "name": "conv", "isTrainable": true, "weights": { "data": [[[[0.6138809701039609, -0.9559492403671359, 0.476234451805567], [0.8721379162737166, -0.4828246560041023, 0.5520929683444493], [-0.24741775259576237, -0.2711158104087845, 0.5364012264002209]], [[0.04223900271543313, -0.893765402982178, -0.12816984007907162], [0.11361319774119227, -0.1694154113577544, -0.49807016395649706], [-0.8437751887886731, -0.9622749458279904, -0.44584457831464697]]], [[[0.20419822391961429, -0.01605961061275818, -0.08196230654022729], [0.7150860436842568, -0.8735289704706601, -0.1046265491299303], [-0.09383202531178125, 0.12706234836144725, -0.9497779434337497]], [[-0.41407205312939976, 0.14450092488834332, -0.3573393811724803], [0.32510437878951026, -0.3178165846094254, -0.9474540564958216], [-0.8981410014122326, 0.3560994231148298, 0.8226389746616616]]], [[[0.8115417907157858, 0.8034156297038719, 0.8768036979577631], [0.36737180716542284, -0.06159858157842901, 0.5869198031716818], [-0.6871280098553914, -0.19834837118932347, 0.8815927400124501]], [[0.8412796164472041, -0.765348442013408, -0.04285164771573258], [-0.08635059786863475, 0.655240576970439, -0.6850741782607559], [0.07121399311693688, 0.020092417613578162, 0.6822472170093352]]]], "shape": [3, 2, 3, 3], "rank": 4 }, "bias": { "data": [[[-0.8482157316665544, 0.9607470304952122, 0.08294637486155843, -0.5787707349496898, -0.5220610823497229, 0.7585672611344474, 0.5721342878076046, 0.1829302975970024, 0.8601251492165525, -0.8819876602157803, -0.20286695281548783, 0.42523421716012333, 0.796659841934791, 0.5468590139451306, -0.11748931999738854, -0.8102981874135999], [0.417429166600523, 0.3939283048128319, -0.41730072698512144, 0.32084780727062223, -0.4038858432658545, 0.7896186523315638, 0.1870742588128016, -0.18105908472273957, -0.9842570861670363, -0.1150973137712481, 0.9892396174295313, 0.35452301995612245, -0.26830891299292947, -0.7814560885581663, 0.3178741715385869, -0.7576630914598987], [0.10433302754547347, 0.32455277242454517, 0.33719170200442594, -0.9888217959028833, 0.70741976339244, -0.7307060013567768, 0.5316882026060816, -0.4698401878458174, -0.8548205710992431, -0.64585229018076, -0.006357238170582535, -0.6547489067701029, -0.026837117824059176, -0.5548372071539229, 0.5543274960998181, 0.6807899714374204], [-0.5796255694136154, 0.4368686569829534, 0.5798570209586573, -0.879105029954474, 0.787905453665156, -0.7773516115068335, -0.5445869739840479, -0.7049913298823991, 0.1978839293203991, -0.03650007505812991, -0.02784977416170964, -0.3335143560718905, -0.14883701627437862, 0.509047895437718, 0.02573266041593203, -0.7114421311838903], [0.7018177937119285, -0.31640277681471285, 0.8616820811828774, -0.4897301777968326, -0.6293838732950923, 0.32390410509928236, -0.5852511763372941, 0.5339848312385724, 0.8240455123944044, -0.2540307790427543, 0.6929508210269328, 0.32570687854393277, -0.5317857316341621, -0.508099528169339, 0.9674422678260437, -0.251381969823697], [-0.1689925285943643, -0.16002023755389194, 0.9482942019776179, -0.9272113819555832, 0.45829429120510023, 0.052406496565245764, 0.8085968031550228, -0.1757795722969051, 0.12649929057613707, 0.46339790010425386, 0.3226057873072332, 0.16423130991254875, -0.6757638908626145, 0.24905709310131896, 0.5012049462905743, -0.04822100753639025], [0.6643413938080205, 0.5587070449016915, 0.3636453121053129, -0.8182588979860188, -0.16017175286993268, -0.9981456764853092, 0.21268744195737588, -0.9729092944977917, -0.6242774176456047, 0.07752932705711824, 0.13128598170879036, -0.3194348096199784, -0.5759822221323425, 0.15151009897598855, 0.5509085591368064, -0.38800057653062603], [-0.9607346072232952, -0.7822513435734584, -0.8190657993709165, -0.9016002628222544, -0.8667267030480368, 0.43631819058620547, 0.7319979988072527, -0.41026808253944624, 0.06964563825845183, -0.6484446337342189, 0.13812858939634998, -0.13465365806191754, -0.10656992354166328, -0.22139547516446156, 0.30082178649100233, -0.6472505933896271], [0.23993532639977766, -0.6175622003663304, 0.4721312155760695, -0.6395029114940665, -0.5541719384515258, -0.647969535932511, -0.1822002595272374, -0.7433761736295728, -0.04936265985051391, -0.974532692243584, 0.06758375947687423, 0.7590018203453115, -0.46365952585842796, 0.996276083451703, 0.5053956670639521, 0.017525070581517976], [0.3926415239322414, -0.29513776176745754, -0.8727481209785226, -0.5655092332336671, -0.5702707838316412, 0.6289666429823573, 0.6454309206954063, -0.4069461422767564, 0.9027656984100243, -0.09500475354700155, 0.3113509857304202, -0.3164256308274951, 0.910534840730393, 0.8820121267818355, 0.6375968893983122, -0.9403234191723984], [-0.7444793395013198, -0.21834434318873575, 0.32670442354987506, 0.4258812984905853, 0.6610688557626325, 0.4947110759522506, 0.3413767395254579, -0.6149408722011112, 0.6911742027102803, 0.36631390188204116, 0.45830025938453023, 0.43519693390488423, -0.1010198028554592, -0.057457714031143636, 0.6000446903656558, -0.09287568432002447], [0.1241243137357404, -0.8130117761289555, -0.16129490377813038, 0.8427990490862325, 0.25992761206807335, 0.1453837476444113, 0.8618259539587259, 0.9538832806190638, -0.7508637172261798, 0.38000280264787323, 0.748957373341536, 0.795361751281819, 0.8525240215332812, 0.8659697292993929, 0.6537394832988017, -0.3454925928229795], [-0.4601590251936971, 0.4656216374474871, 0.5280828253248644, 0.4862450911432028, 0.14328493962451372, 0.18436379840039274, 0.25633548075769164, 0.4463549451377915, 0.2936494171392179, -0.9337620926021091, -0.38787659205376857, -0.562499429621055, 0.11059268424589819, 0.37904292522955374, -0.33603426319445373, -0.2278045724147375], [0.26593821203899637, 0.2694846359211023, 0.6046323342753182, 0.3194387063270576, 0.5918961861793894, -0.006234655068010797, -0.6992431744388388, 0.2418010641666557, 0.8201313772870518, -0.655700213996891, 0.6443736835538778, 0.2543454279379085, 0.8531374955507405, -0.31253159077514003, 0.19844759911430043, 0.5144297336842674], [0.22517916317568432, 0.3453290262093285, 0.8606969937588698, -0.8122460936332732, -0.7430145671635373, -0.8383099336527913, 0.8153206590936879, -0.7783377025358633, 0.08294839927844455, -0.2602343341383144, 0.762369612583478, 0.35753103879786563, -0.9168464167940409, -0.019328747457477702, 0.7325818558053576, 0.45567221356790255], [0.7273539106994962, -0.7850771555557254, 0.6757665057533238, -0.12393950485525962, 0.636348719538655, -0.10401013702866235, 0.24176465067742137, -0.9127516681631138, 0.7490759617461795, 0.6092772804320883, -0.7950832939720283, 0.8604582277415898, 0.5599517106179681, 0.42890532948018234, -0.5356207543956382, 0.43384802139023027]], [[-0.5993134212766851, 0.9174095308797028, -0.10141057576387946, 0.9230682751643038, -0.5566203794204814, 0.6275814690202002, 0.8978542729282042, 0.10748643503922972, 0.7577287475468275, -0.9024194540609922, -0.24215392441522265, 0.7435720938761408, -0.3789361872763912, 0.8136969794601756, -0.911491212113408, 0.26233398257121543], [0.6278868268809146, 0.17542064975872074, -0.76630960444885, 0.9860137890760943, -0.3773295237452474, 0.7178394818219465, 0.6157595228793722, 0.8914059136347345, 0.5071405613575464, 0.8936213807783662, 0.24840096389531752, -0.10859792209813524, -0.17977990130932264, 0.4690783263856737, 0.7777414227277177, -0.4716120357458118], [-0.044551970304281374, -0.07551737714213425, -0.0591391134169188, 0.8483632592805357, -0.9259287785712416, 0.28872330847498917, 0.7845122273193788, 0.8883863199530726, -0.34405786669603877, 0.4837956312514904, -0.7453751547354386, -0.12563642684421317, 0.8250989341485804, 0.4923208988135914, 0.12548130405411895, -0.6710786100032009], [-0.3250281523298373, 0.9993612410817208, 0.08229606110997811, 0.26868037634081277, 0.819265849954383, -0.8056180899645107, -0.55474323888, -0.10543140421531638, 0.033044787663665476, -0.19578705602931445, 0.8743734883554426, 0.17532971968989108, 0.9844754868791588, -0.5081976010725562, -0.483462693899261, -0.42423654295795776], [0.061428036078100545, -0.5930315759199811, 0.15723572110855089, -0.5699254027620624, -0.9171294367150673, -0.537074549181245, -0.355883886037351, -0.7007838602867817, 0.1734112800090517, 0.7170707852512681, 0.779505021322876, -0.6996762637308167, 0.0890078500391267, 0.8900762563598097, -0.17445376282240233, -0.508695577221985], [-0.11245245689643557, -0.64576507782996, 0.7645265407255843, 0.4305485520298882, 0.35791258396882597, -0.0640741225727317, 0.93885350554219, -0.6815574011161958, -0.6003231836222405, -0.8228456712934233, 0.7281517538937268, -0.17901562610260546, -0.06131109643548727, -0.8004548239360654, -0.994422748154723, 0.514211684637176], [0.09373243678244791, 0.10561441024061491, -0.1806924376736745, 0.6113528106951176, -0.2341946893021054, 0.998153674115076, -0.337127768582844, -0.19690915831839284, -0.5395823989001194, 0.41841148774032355, 0.20484180979811706, 0.7347755657655788, -0.09367466432833882, 0.10554698784624983, 0.9917833314863591, -0.4339080706701357], [-0.2644291325696364, 0.7061911390181561, -0.3066752912527686, 0.3609489234086385, 0.7490115251851004, 0.35663847248227887, 0.6980693996365352, 0.9951007460720922, 0.7794380502459601, 0.7448411952067078, -0.8009489044151776, -0.9649881443618893, -0.5232674300937932, 0.6980251943577891, -0.6876999108614978, -0.49077419076009576], [0.23704093693028438, -0.49825657619860575, -0.2615381517060429, -0.12179048781902124, 0.1775377078432434, 0.6188253702788209, 0.7529042595482465, -0.3028509615110677, 0.10997149078344681, -0.5661772450866032, 0.6079707784131445, -0.8170017976586426, 0.9214755974754427, 0.47262144782085924, 0.8400077614234029, -0.585221354156608], [-0.37014543961053237, -0.3248829716371635, -0.013156427065150966, -0.8234043972424132, 0.16249875333515984, 0.8652280376161556, 0.13012438221955902, -0.41552435823360656, -0.9830003021941596, -0.635579195307945, -0.5913154707650499, 0.34598717504611276, 0.2659362751254417, -0.37145989689483483, -0.5400270722550591, -0.6283811801122949], [0.3361513408609955, -0.5812288272108788, 0.3909611260832586, -0.9735422239380374, 0.0007936278181590595, 0.04716046893162984, -0.5123712549648407, -0.23722944761191855, -0.10159010160053872, 0.22159832836777515, 0.9247864088818374, 0.2218864270120826, 0.9506858045684594, -0.5224847633848997, 0.055808049244605806, -0.8020990915115307], [0.24308368429850802, -0.6324327886808181, 0.8667137091725845, -0.23324492121785956, -0.6811714435250473, 0.7705220065681859, 0.7501861994318748, -0.11417039269831708, -0.07859309660770131, -0.11149988765735941, -0.3608864166030472, -0.14261053050730332, -0.3503296831579785, 0.959477345467803, 0.6629174455030471, 0.003972861521742255], [-0.22391993004341537, 0.5410544907212451, -0.6509936198459023, -0.16638771771409067, -0.5272386247222025, 0.29333402067800174, 0.02589308700088333, 0.6952969462428993, 0.6126818231806668, 0.6129203600067126, -0.6718510553684651, 0.5755398565164265, -0.432917423830002, 0.7261466531219349, -0.28603390648576044, -0.6549245022182393], [0.1810767332507066, 0.8943793620918155, -0.561517290989707, -0.5660793358062761, 0.5316052317839599, 0.7099567442294206, -0.7645573304393916, -0.9010049534512867, -0.970379383922694, 0.5966340233107317, 0.3185678742763929, -0.34352465430235246, -0.6728638881098761, -0.9896563973357608, 0.05869171000065787, -0.5281426739283683], [0.6417456762700451, 0.545505903794935, -0.2533053137464669, -0.5035844648558809, -0.24658050409702126, 0.4369419431780699, -0.9980671952116089, 0.8845551895622097, 0.5958926462062968, -0.060760044846454475, 0.6498089313760171, -0.469520620467641, 0.519830597112517, -0.4623358799018853, -0.9630006488092819, 0.9592144244357936], [-0.16084607507524962, -0.19736895181229008, -0.4980908443137022, -0.5669020710128352, -0.09293265421247865, 0.71566940014042, 0.22319316430136227, 0.577713945602951, -0.6120742503105512, -0.24550428373073707, 0.3312235356554285, -0.23474757581409333, -0.15717254052707008, 0.1647287786764109, -0.534473857047393, 0.08170388338209733]], [[0.947384248035277, -0.032282518290224216, 0.932785102010592, 0.4901741546360645, 0.0024372749829808527, -0.3516492789447454, 0.006218197364729061, -0.6870733465495555, -0.35863649276533094, -0.9876688508952425, -0.6656883534383844, -0.4646783783544899, 0.8024352288414927, -0.9853909695889873, -0.18578470133201463, 0.23911980559356105], [0.3896247758103679, -0.6599266245588606, -0.5477853874437819, 0.820960411556674, -0.5587635018536756, 0.5581138994164094, 0.06651065273453649, -0.24422015680659626, 0.3759824764497912, -0.9634605089571071, 0.04898357749864668, 0.47117674225012296, 0.33228042790739165, -0.15008163638365102, 0.7794746579994813, -0.11080495452904127], [-0.9917813384885064, -0.54087249399058, -0.46946287839142853, 0.5198207125045013, 0.1771068950954433, 0.32720743766279314, -0.5291347869732896, 0.5305684212808859, -0.6382241354604403, 0.32477701165625894, -0.13378653488147418, -0.48763200249765015, -0.5613541724205353, 0.7818354275775365, 0.8721465597534872, 0.37948343526446804], [-0.12206507248023879, 0.5054751615267936, -0.4373108704712243, 0.947717765883966, -0.16498012811160567, -0.37936191015181264, 0.6551329895100526, -0.36026194840426173, 0.20062707571292782, -0.7070240211202503, 0.04673932674152237, 0.45444199073715574, -0.7028342284332403, -0.373419176066204, 0.4216148516326996, 0.5847698988016594], [0.4419972943824144, 0.40046437487087494, 0.8638861496607804, 0.5630009815519221, -0.946543980006864, 0.873104406169172, 0.4871440016525077, -0.004621643635471573, 0.3990978386284252, -0.2421139925406799, -0.47120101530779746, -0.8627007058317322, -0.9771304269907213, 0.9568980779708376, -0.9508825864872863, -0.042824598524206614], [-0.8457078308875707, 0.9474839877615862, -0.734434616304215, 0.0759905511352148, 0.7922097090898736, 0.697016650509704, 0.1859047284554165, -0.9808773677783518, -0.13197720673432856, -0.19497585859323174, -0.05266967140975343, -0.8793570632611816, -0.37873295351057057, 0.4125846288535049, -0.5436896446776469, -0.6226140977730943], [0.1806303026918119, -0.8425205633956527, -0.24617354486569898, 0.8359467475909022, 0.722799872004434, 0.6932946233086283, 0.06844245805224847, -0.8048337585671519, -0.9370983584581942, 0.04528391765056927, 0.7050983487046232, 0.2377370073909093, 0.3781819529106032, -0.18295725246310246, 0.3205045275849163, 0.8467973518614309], [0.35801621000105777, -0.4787893065658375, 0.5696523276243941, 0.7593347183040224, -0.866838592299876, 0.540851589198283, -0.7200974435426031, -0.30336697859084794, 0.9857218193842137, 0.8791271163216843, -0.7769203542963212, 0.11185818266413361, 0.18349135777917147, 0.5178404208449687, -0.7104037977494226, -0.9500393619042937], [-0.23690623420967571, 0.050316062916677895, 0.7448902482743471, -0.5488480405542653, 0.543257502276115, -0.8555587917130891, -0.6272708111744572, 0.1015201275505182, 0.514407948725577, -0.12865296356935296, 0.012476787533285627, 0.41103671399417463, 0.5086863057996025, 0.9941896525612759, -0.550615960396633, -0.8396915209195066], [0.26627127622360725, -0.8843314807049609, 0.24958479573101355, 0.27390590232094847, 0.016238743779047438, -0.5275798285752629, 0.985140638087945, 0.8877102800343908, 0.515305458153205, 0.05271680633150422, -0.9432535771523234, -0.60426200664746, -0.171567124866564, 0.2897273548976027, -0.8812284578993581, 0.8602744496652037], [-0.41665718758456793, 0.8512049722319597, 0.3288227970058448, 0.24069276142699825, -0.6367758076657783, -0.141357269010139, -0.12573066288448054, -0.26126021728928017, 0.6082149030410215, 0.3169856985021213, 0.18117309488143185, -0.026230796227037168, 0.6090317364034445, 0.2470477727782172, 0.1507230331646785, 0.8066747396865297], [-0.1710200380257385, -0.03742021812028251, -0.43555868433445855, -0.7142553972343104, -0.6106384857198115, 0.6680176186297222, -0.6287185889627271, -0.4636800116556563, -0.6066680938114768, -0.5138468858992931, 0.7464200992070014, 0.36176930975210286, -0.7675888947538152, 0.925426187570775, -0.8384067763220693, -0.28237884063344265], [-0.7513378486707731, -0.5620150636029932, -0.007687084143800149, -0.3897177747628413, 0.5426844956519188, -0.8029605102934116, -0.859377619319668, -0.5417840774218852, -0.680197319708475, -0.9040637817509827, -0.8805298151210135, -0.5572376542942032, 0.36627276827741784, 0.17827715446482384, 0.28301292139341694, -0.11133008670105449], [0.4204101160151352, -0.9358986974379553, -0.24210896828889106, -0.47414306897304304, 0.991226265110779, 0.9048122473979063, 0.41148348717359906, -0.739672398634381, -0.3038681721542038, -0.8680306091557042, -0.5634340134964733, 0.8565819210529484, -0.6576488571548345, -0.5339579562382661, 0.6558069680905612, 0.1919556802590079], [-0.8937179154048784, 0.9777624902951823, 0.1117481031599401, 0.38343165355153963, 0.24703964257533206, 0.5526776877784292, 0.5749742252342778, -0.5089961212480312, -0.4779021913422077, 0.8292338453192254, 0.15548142814107369, -0.7830325419382429, -0.18132036111212546, 0.5251702590996468, -0.8951642886568671, 0.14260389874415846], [0.2497894961353957, -0.6207604320280724, 0.218185500035732, -0.22844009586843028, -0.8287951339720279, -0.8028648247039041, 0.4792941259688164, -0.36955779591957594, -0.35788465710322925, 0.5028842866780454, 0.9679906478408615, 0.3724219733487186, 0.5632417822287132, -0.8578894706324784, -0.9410142010808424, -0.49199836244674033]]], "shape": [3, 16, 16], "rank": 3 }, "batchSize": 0, "weightsConstrain": [-10000000, 10000000], "biasConstrain": [-10000000, 10000000], "weightsGradient": { "data": [[[[0, 0, 0], [0, 0, 0], [0, 0, 0]], [[0, 0, 0], [0, 0, 0], [0, 0, 0]]], [[[0, 0, 0], [0, 0, 0], [0, 0, 0]], [[0, 0, 0], [0, 0, 0], [0, 0, 0]]], [[[0, 0, 0], [0, 0, 0], [0, 0, 0]], [[0, 0, 0], [0, 0, 0], [0, 0, 0]]]], "shape": [3, 2, 3, 3], "rank": 4 }, "biasGradient": { "data": [[[0, 0, 0, 0, 0, 0, 0, 0, 0, 0, 0, 0, 0, 0, 0, 0], [0, 0, 0, 0, 0, 0, 0, 0, 0, 0, 0, 0, 0, 0, 0, 0], [0, 0, 0, 0, 0, 0, 0, 0, 0, 0, 0, 0, 0, 0, 0, 0], [0, 0, 0, 0, 0, 0, 0, 0, 0, 0, 0, 0, 0, 0, 0, 0], [0, 0, 0, 0, 0, 0, 0, 0, 0, 0, 0, 0, 0, 0, 0, 0], [0, 0, 0, 0, 0, 0, 0, 0, 0, 0, 0, 0, 0, 0, 0, 0], [0, 0, 0, 0, 0, 0, 0, 0, 0, 0, 0, 0, 0, 0, 0, 0], [0, 0, 0, 0, 0, 0, 0, 0, 0, 0, 0, 0, 0, 0, 0, 0], [0, 0, 0, 0, 0, 0, 0, 0, 0, 0, 0, 0, 0, 0, 0, 0], [0, 0, 0, 0, 0, 0, 0, 0, 0, 0, 0, 0, 0, 0, 0, 0], [0, 0, 0, 0, 0, 0, 0, 0, 0, 0, 0, 0, 0, 0, 0, 0], [0, 0, 0, 0, 0, 0, 0, 0, 0, 0, 0, 0, 0, 0, 0, 0], [0, 0, 0, 0, 0, 0, 0, 0, 0, 0, 0, 0, 0, 0, 0, 0], [0, 0, 0, 0, 0, 0, 0, 0, 0, 0, 0, 0, 0, 0, 0, 0], [0, 0, 0, 0, 0, 0, 0, 0, 0, 0, 0, 0, 0, 0, 0, 0], [0, 0, 0, 0, 0, 0, 0, 0, 0, 0, 0, 0, 0, 0, 0, 0]], [[0, 0, 0, 0, 0, 0, 0, 0, 0, 0, 0, 0, 0, 0, 0, 0], [0, 0, 0, 0, 0, 0, 0, 0, 0, 0, 0, 0, 0, 0, 0, 0], [0, 0, 0, 0, 0, 0, 0, 0, 0, 0, 0, 0, 0, 0, 0, 0], [0, 0, 0, 0, 0, 0, 0, 0, 0, 0, 0, 0, 0, 0, 0, 0], [0, 0, 0, 0, 0, 0, 0, 0, 0, 0, 0, 0, 0, 0, 0, 0], [0, 0, 0, 0, 0, 0, 0, 0, 0, 0, 0, 0, 0, 0, 0, 0], [0, 0, 0, 0, 0, 0, 0, 0, 0, 0, 0, 0, 0, 0, 0, 0], [0, 0, 0, 0, 0, 0, 0, 0, 0, 0, 0, 0, 0, 0, 0, 0], [0, 0, 0, 0, 0, 0, 0, 0, 0, 0, 0, 0, 0, 0, 0, 0], [0, 0, 0, 0, 0, 0, 0, 0, 0, 0, 0, 0, 0, 0, 0, 0], [0, 0, 0, 0, 0, 0, 0, 0, 0, 0, 0, 0, 0, 0, 0, 0], [0, 0, 0, 0, 0, 0, 0, 0, 0, 0, 0, 0, 0, 0, 0, 0], [0, 0, 0, 0, 0, 0, 0, 0, 0, 0, 0, 0, 0, 0, 0, 0], [0, 0, 0, 0, 0, 0, 0, 0, 0, 0, 0, 0, 0, 0, 0, 0], [0, 0, 0, 0, 0, 0, 0, 0, 0, 0, 0, 0, 0, 0, 0, 0], [0, 0, 0, 0, 0, 0, 0, 0, 0, 0, 0, 0, 0, 0, 0, 0]], [[0, 0, 0, 0, 0, 0, 0, 0, 0, 0, 0, 0, 0, 0, 0, 0], [0, 0, 0, 0, 0, 0, 0, 0, 0, 0, 0, 0, 0, 0, 0, 0], [0, 0, 0, 0, 0, 0, 0, 0, 0, 0, 0, 0, 0, 0, 0, 0], [0, 0, 0, 0, 0, 0, 0, 0, 0, 0, 0, 0, 0, 0, 0, 0], [0, 0, 0, 0, 0, 0, 0, 0, 0, 0, 0, 0, 0, 0, 0, 0], [0, 0, 0, 0, 0, 0, 0, 0, 0, 0, 0, 0, 0, 0, 0, 0], [0, 0, 0, 0, 0, 0, 0, 0, 0, 0, 0, 0, 0, 0, 0, 0], [0, 0, 0, 0, 0, 0, 0, 0, 0, 0, 0, 0, 0, 0, 0, 0], [0, 0, 0, 0, 0, 0, 0, 0, 0, 0, 0, 0, 0, 0, 0, 0], [0, 0, 0, 0, 0, 0, 0, 0, 0, 0, 0, 0, 0, 0, 0, 0], [0, 0, 0, 0, 0, 0, 0, 0, 0, 0, 0, 0, 0, 0, 0, 0], [0, 0, 0, 0, 0, 0, 0, 0, 0, 0, 0, 0, 0, 0, 0, 0], [0, 0, 0, 0, 0, 0, 0, 0, 0, 0, 0, 0, 0, 0, 0, 0], [0, 0, 0, 0, 0, 0, 0, 0, 0, 0, 0, 0, 0, 0, 0, 0], [0, 0, 0, 0, 0, 0, 0, 0, 0, 0, 0, 0, 0, 0, 0, 0], [0, 0, 0, 0, 0, 0, 0, 0, 0, 0, 0, 0, 0, 0, 0, 0]]], "shape": [3, 16, 16], "rank": 3 }, "optimizerWeights": [{ "data": [[[[0, 0, 0], [0, 0, 0], [0, 0, 0]], [[0, 0, 0], [0, 0, 0], [0, 0, 0]]], [[[0, 0, 0], [0, 0, 0], [0, 0, 0]], [[0, 0, 0], [0, 0, 0], [0, 0, 0]]], [[[0, 0, 0], [0, 0, 0], [0, 0, 0]], [[0, 0, 0], [0, 0, 0], [0, 0, 0]]]], "shape": [3, 2, 3, 3], "rank": 4 }, { "data": [[[[0, 0, 0], [0, 0, 0], [0, 0, 0]], [[0, 0, 0], [0, 0, 0], [0, 0, 0]]], [[[0, 0, 0], [0, 0, 0], [0, 0, 0]], [[0, 0, 0], [0, 0, 0], [0, 0, 0]]], [[[0, 0, 0], [0, 0, 0], [0, 0, 0]], [[0, 0, 0], [0, 0, 0], [0, 0, 0]]]], "shape": [3, 2, 3, 3], "rank": 4 }, { "data": [[[[0, 0, 0], [0, 0, 0], [0, 0, 0]], [[0, 0, 0], [0, 0, 0], [0, 0, 0]]], [[[0, 0, 0], [0, 0, 0], [0, 0, 0]], [[0, 0, 0], [0, 0, 0], [0, 0, 0]]], [[[0, 0, 0], [0, 0, 0], [0, 0, 0]], [[0, 0, 0], [0, 0, 0], [0, 0, 0]]]], "shape": [3, 2, 3, 3], "rank": 4 }], "optimizerBias": [{ "data": [[[0, 0, 0, 0, 0, 0, 0, 0, 0, 0, 0, 0, 0, 0, 0, 0], [0, 0, 0, 0, 0, 0, 0, 0, 0, 0, 0, 0, 0, 0, 0, 0], [0, 0, 0, 0, 0, 0, 0, 0, 0, 0, 0, 0, 0, 0, 0, 0], [0, 0, 0, 0, 0, 0, 0, 0, 0, 0, 0, 0, 0, 0, 0, 0], [0, 0, 0, 0, 0, 0, 0, 0, 0, 0, 0, 0, 0, 0, 0, 0], [0, 0, 0, 0, 0, 0, 0, 0, 0, 0, 0, 0, 0, 0, 0, 0], [0, 0, 0, 0, 0, 0, 0, 0, 0, 0, 0, 0, 0, 0, 0, 0], [0, 0, 0, 0, 0, 0, 0, 0, 0, 0, 0, 0, 0, 0, 0, 0], [0, 0, 0, 0, 0, 0, 0, 0, 0, 0, 0, 0, 0, 0, 0, 0], [0, 0, 0, 0, 0, 0, 0, 0, 0, 0, 0, 0, 0, 0, 0, 0], [0, 0, 0, 0, 0, 0, 0, 0, 0, 0, 0, 0, 0, 0, 0, 0], [0, 0, 0, 0, 0, 0, 0, 0, 0, 0, 0, 0, 0, 0, 0, 0], [0, 0, 0, 0, 0, 0, 0, 0, 0, 0, 0, 0, 0, 0, 0, 0], [0, 0, 0, 0, 0, 0, 0, 0, 0, 0, 0, 0, 0, 0, 0, 0], [0, 0, 0, 0, 0, 0, 0, 0, 0, 0, 0, 0, 0, 0, 0, 0], [0, 0, 0, 0, 0, 0, 0, 0, 0, 0, 0, 0, 0, 0, 0, 0]], [[0, 0, 0, 0, 0, 0, 0, 0, 0, 0, 0, 0, 0, 0, 0, 0], [0, 0, 0, 0, 0, 0, 0, 0, 0, 0, 0, 0, 0, 0, 0, 0], [0, 0, 0, 0, 0, 0, 0, 0, 0, 0, 0, 0, 0, 0, 0, 0], [0, 0, 0, 0, 0, 0, 0, 0, 0, 0, 0, 0, 0, 0, 0, 0], [0, 0, 0, 0, 0, 0, 0, 0, 0, 0, 0, 0, 0, 0, 0, 0], [0, 0, 0, 0, 0, 0, 0, 0, 0, 0, 0, 0, 0, 0, 0, 0], [0, 0, 0, 0, 0, 0, 0, 0, 0, 0, 0, 0, 0, 0, 0, 0], [0, 0, 0, 0, 0, 0, 0, 0, 0, 0, 0, 0, 0, 0, 0, 0], [0, 0, 0, 0, 0, 0, 0, 0, 0, 0, 0, 0, 0, 0, 0, 0], [0, 0, 0, 0, 0, 0, 0, 0, 0, 0, 0, 0, 0, 0, 0, 0], [0, 0, 0, 0, 0, 0, 0, 0, 0, 0, 0, 0, 0, 0, 0, 0], [0, 0, 0, 0, 0, 0, 0, 0, 0, 0, 0, 0, 0, 0, 0, 0], [0, 0, 0, 0, 0, 0, 0, 0, 0, 0, 0, 0, 0, 0, 0, 0], [0, 0, 0, 0, 0, 0, 0, 0, 0, 0, 0, 0, 0, 0, 0, 0], [0, 0, 0, 0, 0, 0, 0, 0, 0, 0, 0, 0, 0, 0, 0, 0], [0, 0, 0, 0, 0, 0, 0, 0, 0, 0, 0, 0, 0, 0, 0, 0]], [[0, 0, 0, 0, 0, 0, 0, 0, 0, 0, 0, 0, 0, 0, 0, 0], [0, 0, 0, 0, 0, 0, 0, 0, 0, 0, 0, 0, 0, 0, 0, 0], [0, 0, 0, 0, 0, 0, 0, 0, 0, 0, 0, 0, 0, 0, 0, 0], [0, 0, 0, 0, 0, 0, 0, 0, 0, 0, 0, 0, 0, 0, 0, 0], [0, 0, 0, 0, 0, 0, 0, 0, 0, 0, 0, 0, 0, 0, 0, 0], [0, 0, 0, 0, 0, 0, 0, 0, 0, 0, 0, 0, 0, 0, 0, 0], [0, 0, 0, 0, 0, 0, 0, 0, 0, 0, 0, 0, 0, 0, 0, 0], [0, 0, 0, 0, 0, 0, 0, 0, 0, 0, 0, 0, 0, 0, 0, 0], [0, 0, 0, 0, 0, 0, 0, 0, 0, 0, 0, 0, 0, 0, 0, 0], [0, 0, 0, 0, 0, 0, 0, 0, 0, 0, 0, 0, 0, 0, 0, 0], [0, 0, 0, 0, 0, 0, 0, 0, 0, 0, 0, 0, 0, 0, 0, 0], [0, 0, 0, 0, 0, 0, 0, 0, 0, 0, 0, 0, 0, 0, 0, 0], [0, 0, 0, 0, 0, 0, 0, 0, 0, 0, 0, 0, 0, 0, 0, 0], [0, 0, 0, 0, 0, 0, 0, 0, 0, 0, 0, 0, 0, 0, 0, 0], [0, 0, 0, 0, 0, 0, 0, 0, 0, 0, 0, 0, 0, 0, 0, 0], [0, 0, 0, 0, 0, 0, 0, 0, 0, 0, 0, 0, 0, 0, 0, 0]]], "shape": [3, 16, 16], "rank": 3 }, { "data": [[[0, 0, 0, 0, 0, 0, 0, 0, 0, 0, 0, 0, 0, 0, 0, 0], [0, 0, 0, 0, 0, 0, 0, 0, 0, 0, 0, 0, 0, 0, 0, 0], [0, 0, 0, 0, 0, 0, 0, 0, 0, 0, 0, 0, 0, 0, 0, 0], [0, 0, 0, 0, 0, 0, 0, 0, 0, 0, 0, 0, 0, 0, 0, 0], [0, 0, 0, 0, 0, 0, 0, 0, 0, 0, 0, 0, 0, 0, 0, 0], [0, 0, 0, 0, 0, 0, 0, 0, 0, 0, 0, 0, 0, 0, 0, 0], [0, 0, 0, 0, 0, 0, 0, 0, 0, 0, 0, 0, 0, 0, 0, 0], [0, 0, 0, 0, 0, 0, 0, 0, 0, 0, 0, 0, 0, 0, 0, 0], [0, 0, 0, 0, 0, 0, 0, 0, 0, 0, 0, 0, 0, 0, 0, 0], [0, 0, 0, 0, 0, 0, 0, 0, 0, 0, 0, 0, 0, 0, 0, 0], [0, 0, 0, 0, 0, 0, 0, 0, 0, 0, 0, 0, 0, 0, 0, 0], [0, 0, 0, 0, 0, 0, 0, 0, 0, 0, 0, 0, 0, 0, 0, 0], [0, 0, 0, 0, 0, 0, 0, 0, 0, 0, 0, 0, 0, 0, 0, 0], [0, 0, 0, 0, 0, 0, 0, 0, 0, 0, 0, 0, 0, 0, 0, 0], [0, 0, 0, 0, 0, 0, 0, 0, 0, 0, 0, 0, 0, 0, 0, 0], [0, 0, 0, 0, 0, 0, 0, 0, 0, 0, 0, 0, 0, 0, 0, 0]], [[0, 0, 0, 0, 0, 0, 0, 0, 0, 0, 0, 0, 0, 0, 0, 0], [0, 0, 0, 0, 0, 0, 0, 0, 0, 0, 0, 0, 0, 0, 0, 0], [0, 0, 0, 0, 0, 0, 0, 0, 0, 0, 0, 0, 0, 0, 0, 0], [0, 0, 0, 0, 0, 0, 0, 0, 0, 0, 0, 0, 0, 0, 0, 0], [0, 0, 0, 0, 0, 0, 0, 0, 0, 0, 0, 0, 0, 0, 0, 0], [0, 0, 0, 0, 0, 0, 0, 0, 0, 0, 0, 0, 0, 0, 0, 0], [0, 0, 0, 0, 0, 0, 0, 0, 0, 0, 0, 0, 0, 0, 0, 0], [0, 0, 0, 0, 0, 0, 0, 0, 0, 0, 0, 0, 0, 0, 0, 0], [0, 0, 0, 0, 0, 0, 0, 0, 0, 0, 0, 0, 0, 0, 0, 0], [0, 0, 0, 0, 0, 0, 0, 0, 0, 0, 0, 0, 0, 0, 0, 0], [0, 0, 0, 0, 0, 0, 0, 0, 0, 0, 0, 0, 0, 0, 0, 0], [0, 0, 0, 0, 0, 0, 0, 0, 0, 0, 0, 0, 0, 0, 0, 0], [0, 0, 0, 0, 0, 0, 0, 0, 0, 0, 0, 0, 0, 0, 0, 0], [0, 0, 0, 0, 0, 0, 0, 0, 0, 0, 0, 0, 0, 0, 0, 0], [0, 0, 0, 0, 0, 0, 0, 0, 0, 0, 0, 0, 0, 0, 0, 0], [0, 0, 0, 0, 0, 0, 0, 0, 0, 0, 0, 0, 0, 0, 0, 0]], [[0, 0, 0, 0, 0, 0, 0, 0, 0, 0, 0, 0, 0, 0, 0, 0], [0, 0, 0, 0, 0, 0, 0, 0, 0, 0, 0, 0, 0, 0, 0, 0], [0, 0, 0, 0, 0, 0, 0, 0, 0, 0, 0, 0, 0, 0, 0, 0], [0, 0, 0, 0, 0, 0, 0, 0, 0, 0, 0, 0, 0, 0, 0, 0], [0, 0, 0, 0, 0, 0, 0, 0, 0, 0, 0, 0, 0, 0, 0, 0], [0, 0, 0, 0, 0, 0, 0, 0, 0, 0, 0, 0, 0, 0, 0, 0], [0, 0, 0, 0, 0, 0, 0, 0, 0, 0, 0, 0, 0, 0, 0, 0], [0, 0, 0, 0, 0, 0, 0, 0, 0, 0, 0, 0, 0, 0, 0, 0], [0, 0, 0, 0, 0, 0, 0, 0, 0, 0, 0, 0, 0, 0, 0, 0], [0, 0, 0, 0, 0, 0, 0, 0, 0, 0, 0, 0, 0, 0, 0, 0], [0, 0, 0, 0, 0, 0, 0, 0, 0, 0, 0, 0, 0, 0, 0, 0], [0, 0, 0, 0, 0, 0, 0, 0, 0, 0, 0, 0, 0, 0, 0, 0], [0, 0, 0, 0, 0, 0, 0, 0, 0, 0, 0, 0, 0, 0, 0, 0], [0, 0, 0, 0, 0, 0, 0, 0, 0, 0, 0, 0, 0, 0, 0, 0], [0, 0, 0, 0, 0, 0, 0, 0, 0, 0, 0, 0, 0, 0, 0, 0], [0, 0, 0, 0, 0, 0, 0, 0, 0, 0, 0, 0, 0, 0, 0, 0]]], "shape": [3, 16, 16], "rank": 3 }, { "data": [[[0, 0, 0, 0, 0, 0, 0, 0, 0, 0, 0, 0, 0, 0, 0, 0], [0, 0, 0, 0, 0, 0, 0, 0, 0, 0, 0, 0, 0, 0, 0, 0], [0, 0, 0, 0, 0, 0, 0, 0, 0, 0, 0, 0, 0, 0, 0, 0], [0, 0, 0, 0, 0, 0, 0, 0, 0, 0, 0, 0, 0, 0, 0, 0], [0, 0, 0, 0, 0, 0, 0, 0, 0, 0, 0, 0, 0, 0, 0, 0], [0, 0, 0, 0, 0, 0, 0, 0, 0, 0, 0, 0, 0, 0, 0, 0], [0, 0, 0, 0, 0, 0, 0, 0, 0, 0, 0, 0, 0, 0, 0, 0], [0, 0, 0, 0, 0, 0, 0, 0, 0, 0, 0, 0, 0, 0, 0, 0], [0, 0, 0, 0, 0, 0, 0, 0, 0, 0, 0, 0, 0, 0, 0, 0], [0, 0, 0, 0, 0, 0, 0, 0, 0, 0, 0, 0, 0, 0, 0, 0], [0, 0, 0, 0, 0, 0, 0, 0, 0, 0, 0, 0, 0, 0, 0, 0], [0, 0, 0, 0, 0, 0, 0, 0, 0, 0, 0, 0, 0, 0, 0, 0], [0, 0, 0, 0, 0, 0, 0, 0, 0, 0, 0, 0, 0, 0, 0, 0], [0, 0, 0, 0, 0, 0, 0, 0, 0, 0, 0, 0, 0, 0, 0, 0], [0, 0, 0, 0, 0, 0, 0, 0, 0, 0, 0, 0, 0, 0, 0, 0], [0, 0, 0, 0, 0, 0, 0, 0, 0, 0, 0, 0, 0, 0, 0, 0]], [[0, 0, 0, 0, 0, 0, 0, 0, 0, 0, 0, 0, 0, 0, 0, 0], [0, 0, 0, 0, 0, 0, 0, 0, 0, 0, 0, 0, 0, 0, 0, 0], [0, 0, 0, 0, 0, 0, 0, 0, 0, 0, 0, 0, 0, 0, 0, 0], [0, 0, 0, 0, 0, 0, 0, 0, 0, 0, 0, 0, 0, 0, 0, 0], [0, 0, 0, 0, 0, 0, 0, 0, 0, 0, 0, 0, 0, 0, 0, 0], [0, 0, 0, 0, 0, 0, 0, 0, 0, 0, 0, 0, 0, 0, 0, 0], [0, 0, 0, 0, 0, 0, 0, 0, 0, 0, 0, 0, 0, 0, 0, 0], [0, 0, 0, 0, 0, 0, 0, 0, 0, 0, 0, 0, 0, 0, 0, 0], [0, 0, 0, 0, 0, 0, 0, 0, 0, 0, 0, 0, 0, 0, 0, 0], [0, 0, 0, 0, 0, 0, 0, 0, 0, 0, 0, 0, 0, 0, 0, 0], [0, 0, 0, 0, 0, 0, 0, 0, 0, 0, 0, 0, 0, 0, 0, 0], [0, 0, 0, 0, 0, 0, 0, 0, 0, 0, 0, 0, 0, 0, 0, 0], [0, 0, 0, 0, 0, 0, 0, 0, 0, 0, 0, 0, 0, 0, 0, 0], [0, 0, 0, 0, 0, 0, 0, 0, 0, 0, 0, 0, 0, 0, 0, 0], [0, 0, 0, 0, 0, 0, 0, 0, 0, 0, 0, 0, 0, 0, 0, 0], [0, 0, 0, 0, 0, 0, 0, 0, 0, 0, 0, 0, 0, 0, 0, 0]], [[0, 0, 0, 0, 0, 0, 0, 0, 0, 0, 0, 0, 0, 0, 0, 0], [0, 0, 0, 0, 0, 0, 0, 0, 0, 0, 0, 0, 0, 0, 0, 0], [0, 0, 0, 0, 0, 0, 0, 0, 0, 0, 0, 0, 0, 0, 0, 0], [0, 0, 0, 0, 0, 0, 0, 0, 0, 0, 0, 0, 0, 0, 0, 0], [0, 0, 0, 0, 0, 0, 0, 0, 0, 0, 0, 0, 0, 0, 0, 0], [0, 0, 0, 0, 0, 0, 0, 0, 0, 0, 0, 0, 0, 0, 0, 0], [0, 0, 0, 0, 0, 0, 0, 0, 0, 0, 0, 0, 0, 0, 0, 0], [0, 0, 0, 0, 0, 0, 0, 0, 0, 0, 0, 0, 0, 0, 0, 0], [0, 0, 0, 0, 0, 0, 0, 0, 0, 0, 0, 0, 0, 0, 0, 0], [0, 0, 0, 0, 0, 0, 0, 0, 0, 0, 0, 0, 0, 0, 0, 0], [0, 0, 0, 0, 0, 0, 0, 0, 0, 0, 0, 0, 0, 0, 0, 0], [0, 0, 0, 0, 0, 0, 0, 0, 0, 0, 0, 0, 0, 0, 0, 0], [0, 0, 0, 0, 0, 0, 0, 0, 0, 0, 0, 0, 0, 0, 0, 0], [0, 0, 0, 0, 0, 0, 0, 0, 0, 0, 0, 0, 0, 0, 0, 0], [0, 0, 0, 0, 0, 0, 0, 0, 0, 0, 0, 0, 0, 0, 0, 0], [0, 0, 0, 0, 0, 0, 0, 0, 0, 0, 0, 0, 0, 0, 0, 0]]], "shape": [3, 16, 16], "rank": 3 }], "parameters": 822, "filters": 3, "padding": "same", "kernelSize": [3, 3], "stride": [1, 1], "dilation": [1, 1], "kernelGradientPad": [2, 2], "inputGradientPad": "same", "inputShape": [2, 16, 16], "kernelShape": [3, 2, 3, 3], "padAmt": [2, 2], "outputShape": [3, 16, 16] }, { "input": { "data": [[[-1.6964314633331088, 1.9214940609904243, 0.16589274972311685, -1.1575414698993796, -1.0441221646994459, 1.5171345222688948, 0.2003538333440651, -1.709744504262884, -0.1416020498001207, -2.4941373114790415, -0.40573390563097567, 0.8504684343202467, 1.593319683869582, 1.0937180278902612, -0.23497863999477708, -1.6205963748271999], [0.834858333201046, 0.7878566096256638, -0.8346014539702429, 0.6416956145412445, -0.807771686531709, 1.5792373046631276, -0.6979360647246124, -3.4596585119636174, -4.681892920834043, -0.9181176158745439, 1.9784792348590625, 0.7090460399122449, -0.5366178259858589, -1.5629121771163326, 0.6357483430771738, -1.5153261829197975], [0.20866605509094693, 0.6491055448490903, 0.6743834040088519, -1.9776435918057667, 1.41483952678488, -1.4614120027135535, -0.008708177138052386, -4.037220718209774, -4.423019890698457, -1.9796275686935676, -0.01271447634116507, -1.3094978135402058, -0.05367423564811835, -1.1096744143078459, 1.1086549921996363, 1.3615799428748407], [-1.1592511388272309, 0.8737373139659068, 1.1597140419173146, -1.758210059908948, 1.575810907330312, -1.554703223013667, -2.161258530318311, -4.507523002282937, -2.3176108898591723, -0.7609231384483075, -0.05569954832341928, -0.667028712143781, -0.29767403254875724, 1.018095790875436, 0.05146532083186406, -1.4228842623677807], [1.403635587423857, -0.6328055536294257, 1.7233641623657547, -0.9794603555936652, -1.2587677465901845, 0.6478082101985647, -2.2425869350248036, -2.029570680040994, -1.0652877237111618, -1.1959845464175562, 1.3859016420538657, 0.6514137570878655, -1.0635714632683242, -1.016199056338678, 1.9348845356520874, -0.502763939647394], [-0.3379850571887286, -0.3200404751077839, 1.8965884039552359, -1.8544227639111663, 0.9165885824102005, 0.10481299313049153, 0.54510902395983, -3.4490994871119494, -2.4603801673476964, 0.23887281187646003, 0.6452115746144664, 0.3284626198250975, -1.351527781725229, 0.4981141862026379, 1.0024098925811487, -0.0964420150727805], [1.5939682036074774, 1.135281753199057, 0.7451582876062999, -1.6186501325763636, -0.30247584234419134, -1.9784236895749443, -0.6288420350397899, -5.025491268118048, -3.944065920395506, -0.5149966708221372, 0.28043962681325474, -0.6210019558442827, -1.134096780869011, 0.3208878613476511, 1.1196847816692868, -1.294534716065799], [-1.586915486114807, -0.6052287951371791, -0.6788577067320953, -0.843926633634771, -0.7741795140863359, 1.8319102731821486, 1.3511853072740274, -2.9588026155872935, -1.6148135799733292, -1.0255383637907478, 1.2355310708024376, 0.6899665758859026, 0.7461340449264111, 0.5164829416808145, 1.5609174649917423, -1.4237214895141868], [0.06942417657833344, -0.15955199057620506, 2.0198348413085947, -0.20343341283167726, -0.03277146674659592, -0.22036666170856645, -0.3609126912482348, -3.508720279620828, -1.7365316580445425, -1.56141596266276, 1.2107399291102041, 2.5935760508470787, 0.14825335843959975, 3.068124577059862, 2.08636374428436, 0.08229513116947529], [0.30556825930291387, -0.45610934199252307, -1.6113300604146532, -0.9968522849249422, -1.0063753861208904, 1.3920994675071066, 0.352943440582989, -3.7772664455292593, -0.7736811701375299, -0.7437663138836588, 0.7568681530032324, -0.49868508011259816, 1.955235863003178, 1.898190435106063, 1.4093599603390163, -2.2227151086079715], [-1.4889586790026397, -0.4366886863774715, 0.6534088470997501, 0.8517625969811706, 1.322137711525265, 0.9894221519045012, -0.3893311032992999, -4.327422086920361, -1.33103034307941, 0.04470481543203464, 0.9166005187690605, 0.8703938678097685, -0.2020396057109184, -0.11491542806228727, 1.2000893807313116, -0.18575136864004893], [0.2482486274714808, -1.626023552257911, -0.32258980755626077, 1.685598098172465, 0.5198552241361467, 0.2907674952888226, 0.6515673255672361, -1.189773781280011, -4.21510618295233, 0.07208261696369878, 1.497914746683072, 1.590723502563638, 1.7050480430665624, 1.7319394585987857, 1.3074789665976034, -0.690985185645959], [-0.9203180503873942, 0.9312432748949742, 1.0561656506497288, 0.9724901822864056, 0.28656987924902744, 0.3687275968007855, -0.5594136208348324, -2.2048304522425557, -2.1260799142215348, -2.555447173536266, -0.7757531841075371, -1.12499885924211, 0.22118536849179637, 0.7580858504591075, -0.6720685263889075, -0.455609144829475], [0.5318764240779927, 0.5389692718422046, 1.2092646685506363, 0.6388774126541152, 1.1837923723587789, -0.012469310136021594, -2.4705709312278934, -2.6139382141848273, -1.073115993925867, -1.9993234163258298, 1.2887473671077556, 0.508690855875817, 1.706274991101481, -0.6250631815502801, 0.39689519822860087, 1.0288594673685347], [0.45035832635136863, 0.690658052418657, 1.7213939875177395, -1.6244921872665463, -1.4860291343270746, -1.6766198673055825, 0.5585567358371601, -4.654215747589865, -2.5474819499430814, -1.2083916566086765, 1.524739225166956, 0.7150620775957313, -1.8336928335880818, -0.038657494914955404, 1.4651637116107152, 0.9113444271358051], [1.4547078213989924, -1.5701543111114509, 1.3515330115066475, -0.24787900971051924, 1.27269743907731, -0.2080202740573247, -0.14271070268072594, -3.514924154701729, 0.590823309609052, 1.374406761320802, -1.5901665879440565, 1.7209164554831795, 1.1199034212359362, 0.8578106589603647, -1.0712415087912763, 0.8676960427804605]], [[-1.1986268425533702, 1.8348190617594056, -0.20282115152775892, 1.8461365503286076, -1.1132407588409627, 1.2551629380404004, 1.6708934640222484, 0.1284406267497038, 0.980703710976337, -2.377875530744707, -0.4843078488304453, 1.4871441877522815, -0.7578723745527824, 1.6273939589203512, -1.822982424226816, 0.5246679651424309], [1.2557736537618291, 0.3508412995174415, -1.5326192088977, 1.9720275781521885, -0.7546590474904948, 1.435678963643893, 0.749364582752104, 1.4834411276565764, 0.2099562103567183, 0.8001340858046102, 0.49680192779063503, -0.21719584419627047, -0.3595598026186453, 0.9381566527713474, 1.5554828454554355, -0.9432240714916236], [-0.08910394060856275, -0.1510347542842685, -0.1182782268338376, 1.6967265185610714, -1.8518575571424831, 0.5774466169499783, 1.0868699916321172, 1.4774019402932526, -1.492440645750452, -0.019517413249141358, -1.4907503094708772, -0.25127285368842633, 1.6501978682971608, 0.9846417976271828, 0.2509626081082379, -1.3421572200064018], [-0.6500563046596746, 1.9987224821634415, 0.16459212221995623, 0.5373607526816255, 1.638531699908766, -1.6112361799290214, -1.5916409407666403, -0.5102335080435254, -0.7382353370310435, -1.378682787810751, 1.7487469767108852, 0.35065943937978217, 1.9689509737583175, -1.0163952021451124, -0.966925387798522, -0.8484730859159155], [0.12285607215620109, -1.1860631518399622, 0.31447144221710177, -1.1398508055241248, -1.8342588734301346, -1.07414909836249, -1.1939222350813423, -1.7009384201864561, -0.45750235234027103, 0.4470328947504141, 1.559010042645752, -1.3993525274616334, 0.1780157000782534, 1.7801525127196194, -0.34890752564480465, -1.01739115444397], [-0.22490491379287114, -1.29153015565992, 1.5290530814511687, 0.8610971040597764, 0.7158251679376519, -0.1281482451454634, 1.3955525480777398, -1.6624855018452842, -2.0049712796028554, -2.632800018338969, 1.4563035077874535, -0.3580312522052109, -0.12262219287097453, -1.6009096478721307, -1.988845496309446, 1.028423369274352], [-0.6352507215074066, -0.7053187999028538, -1.2779324957314326, 0.30615800100615154, -1.3849369989882945, 1.0797597278460684, -2.072957620556412, -1.609736636633762, -2.800037330542697, -1.0668333206555587, -0.5068640007878495, 0.5530035111470739, -1.1038969490407613, -0.705453644691584, 1.0670190425886346, -0.8345858182906054], [-2.3297293798121657, 0.2327651817358949, -1.7929676788059545, -0.45771924948314036, 0.31840595406978345, -0.4663401513358596, -0.26563276003398717, 0.5112136962308744, -0.4250659081668715, -0.6770433816391239, -2.7815149051307726, -3.109593385024196, -2.2261519564880037, 0.21643329241516085, -2.555016918023413, -1.106760985256929], [-0.6020955628930071, -1.1534063215469164, -0.6799694725617906, -0.40047414478774734, 0.19818224653678196, 1.080757571407937, 0.8667608869401477, -1.061965791784733, -0.7412750999411857, -2.2763563350750333, 1.0590483876765842, -1.79089676446699, 1.6860580258011806, 0.7883497264920136, 1.523122353697101, -1.1407470217927633], [-0.8383127963740502, -0.5435896365076982, 0.07986345263632688, -1.5406324877181976, 0.4311738134369485, 1.83663238199894, -0.11572939180089348, -1.024243109313477, -2.6641492099800645, -2.1520907596013834, -1.076454634763471, 0.7981506568588543, 0.6380488570175122, -0.6367434870230408, -0.9738778377434893, -1.0686237469177338], [0.672302681721991, -1.1624576544217575, 0.7819222521665172, -1.9470844478760747, 0.001587255636318119, 0.09432093786325968, -1.5068969729363217, -0.7738295948367298, -1.0075051155594519, -0.5439120190165718, 1.8495728177636748, 0.4437728540241652, 1.9013716091369188, -1.0449695267697994, 0.11161609848921161, -1.6041981830230614], [0.48616736859701604, -1.2648655773616362, 1.733427418345169, -0.4664898424357191, -1.3623428870500947, 1.5410440131363718, 1.0182179358571093, -0.5277114850095268, -0.9615111055737771, -1.210108451066841, -0.7217728332060944, -0.28522106101460665, -0.700659366315957, 1.918954690935606, 1.3258348910060942, 0.00794572304348451], [-0.44783986008683074, 1.0821089814424902, -1.3019872396918046, -0.33277543542818133, -1.054477249444405, 0.5866680413560035, -0.43036828900487367, 1.091223192872906, 0.4210387340029591, 0.238732044261303, -1.3437021107369302, 1.151079713032853, -0.865834847660004, 1.4522933062438699, -0.5720678129715209, -1.3098490044364786], [0.3621534665014132, 1.788758724183631, -1.123034581979414, -1.1321586716125522, 1.0632104635679198, 1.4199134884588411, -2.0112691238854232, -2.101380606515466, -2.7450836802037624, 0.20615937086934122, 0.6371357485527858, -0.6870493086047049, -1.3457277762197521, -1.9793127946715217, 0.11738342000131574, -1.0562853478567367], [1.2834913525400902, 1.09101180758987, -0.5066106274929338, -1.0071689297117619, -0.4931610081940425, 0.8738838863561398, -2.4782888534298584, 1.4697396795115267, 0.3874603800542191, -1.108628765445031, 1.2996178627520343, -0.939041240935282, 1.039661194225034, -0.9246717598037706, -1.9260012976185639, 1.9184288488715873], [-0.32169215015049923, -0.39473790362458017, -0.9961816886274044, -1.1338041420256704, -0.1858653084249573, 1.43133880028084, -0.8584071090655774, -0.32268120618348206, -1.486431834682074, -0.5799762418013636, 0.662447071310857, -0.46949515162818667, -0.31434508105414016, 0.3294575573528218, -1.068947714094786, 0.16340776676419466]], [[1.894768496070554, -0.06456503658044843, 1.865570204021184, 0.980348309272129, 0.004874549965961705, -0.7032985578894908, 0.009609433478037444, -0.7016406597665146, -0.05707659569834256, -1.9904743065421828, -1.3313767068767688, -0.9293567567089798, 1.6048704576829853, -1.9707819391779746, -0.37156940266402927, 0.4782396111871221], [0.7792495516207358, -1.3198532491177213, -1.0955707748875638, 1.641920823113348, -1.1175270037073513, 1.1162277988328189, 0.08734269650191973, -0.6241343700097366, 1.4880925171656978, -1.100778006218708, 0.09796715499729336, 0.9423534845002459, 0.6645608558147833, -0.30016327276730204, 1.5589493159989627, -0.22160990905808253], [-1.9835626769770127, -1.08174498798116, -0.9389257567828571, 1.0396414250090027, 0.3542137901908866, 0.6544148753255863, -1.1039481829137325, 0.9254427861652277, -0.5403207066547653, 1.475697035008024, -0.26757306976294837, -0.9752640049953003, -1.1227083448410706, 1.563670855155073, 1.7442931195069744, 0.7589668705289361], [-0.24413014496047758, 1.0109503230535872, -0.8746217409424486, 1.895435531767932, -0.32996025622321135, -0.7587238203036253, 1.264587370052952, -0.8562179532050676, 1.137381715691971, -0.5879050305449944, 0.09347865348304474, 0.9088839814743115, -1.4056684568664806, -0.746838352132408, 0.8432297032653993, 1.1695397976033188], [0.8839945887648288, 0.8009287497417499, 1.7277722993215607, 1.1260019631038443, -1.893087960013728, 1.746208812338344, 0.9286093943378622, -0.14493734366748723, 1.5343232415229657, 0.3419150266141464, -0.9424020306155949, -1.7254014116634644, -1.9542608539814426, 1.9137961559416752, -1.9017651729745726, -0.08564919704841323], [-1.6914156617751415, 1.8949679755231723, -1.46886923260843, 0.1519811022704296, 1.5844194181797473, 1.394033301019408, 0.32613084794367975, -2.097448791953248, 0.47217315079745825, 0.4361912945090427, -0.10533934281950685, -1.7587141265223631, -0.7574659070211411, 0.8251692577070098, -1.0873792893552938, -1.2452281955461886], [1.0445049742067505, -1.6889247678235701, -0.49623073076366264, 1.6680098541495396, 1.4417161029766032, 1.382705605584992, 0.087322666105079, -1.7492452145631125, -1.1419527936825378, 0.91282720596438, 1.4063130563769817, 0.4715903737495539, 0.7524802647889417, -0.3697981459584696, 0.637125414137568, 0.808118322678147], [1.924598010418495, -0.06876922540526409, 2.028114042975199, 2.407478824334456, -0.8448677968733411, 1.970512566122977, -0.5970641083259485, 0.14638137414817098, 3.596380590760954, 3.4732066320652857, -0.6650313208662315, 1.1125257530546782, 1.2557921032847539, 1.9244902294163484, -0.5319982077724343, -2.4797818792663087], [1.7317280808355364, 3.4850862729694523, 4.87423464368479, 2.2867580660275664, 4.470969151688327, 1.6733365637099187, 2.0842339158200294, 3.4518003458405895, 5.149397608853366, 3.953291231692897, 3.409407722202668, 4.206527575124446, 4.401826758735302, 5.372833452258648, 2.283222226342831, 0.24134760416763834], [2.2127618801088493, 0.7230981569674992, 2.990930709839448, 3.0395729230193185, 2.5242386059355164, 1.4366014612268954, 4.416363785586158, 4.131487622049658, 4.258499598949946, 3.4233377427359355, 0.6052539640727743, 1.283237105082501, 2.1486268686442935, 3.071215828172627, 0.7293042025787049, 3.335506319750065], [-0.8333143751691359, 1.7024099444639194, 0.6576455940116896, 0.4813855228539965, -1.2735516153315567, -0.282714538020278, -0.29713993473611433, -0.6582144909751044, 1.9525573703481585, 1.4601144086997488, 0.3623461897628637, -0.052461592454074335, 1.218063472806889, 0.4940955455564344, 0.301446066329357, 1.6133494793730594], [-0.342040076051477, -0.07484043624056502, -0.8711173686689171, -1.4285107944686208, -1.221276971439623, 1.3360352372594444, -1.3031157868926075, -1.0630540797078567, -0.4772086233568382, -0.20155076010307993, 1.4928401984140027, 0.7235386195042057, -1.5351777895076304, 1.85085237514155, -1.6768135526441386, -0.5647576812668853], [-1.5026756973415463, -1.1240301272059865, -0.015374168287600298, -0.7794355495256826, 1.0853689913038376, -1.6059210205868233, -1.7644338476064894, -1.2192622112403144, -0.6242670751508346, -0.9819845518064592, -1.761059630242027, -1.1144753085884065, 0.7325455365548357, 0.3565543089296477, 0.5660258427868339, -0.22266017340210897], [0.8408202320302705, -1.8717973948759106, -0.4842179365777821, -0.9482861379460861, 1.982452530221558, 1.8096244947958127, 0.7772883653800449, -1.615038853665306, 0.12839121995770775, -0.9099182066159022, -1.1268680269929465, 1.7131638421058968, -1.315297714309669, -1.0679159124765323, 1.3116139361811223, 0.3839113605180158], [-1.7874358308097569, 1.9555249805903645, 0.2234962063198802, 0.7668633071030793, 0.4940792851506641, 1.1053553755568584, 1.1042698415014023, -1.1536862988926064, -0.2196768184183, 2.484610702333957, 0.31096285628214737, -1.5660650838764858, -0.3626407222242509, 1.0503405181992935, -1.7903285773137343, 0.2852077974883169], [0.4995789922707914, -1.2415208640561448, 0.436371000071464, -0.45688019173686056, -1.6575902679440557, -1.6057296494078082, 0.23066242596114428, -1.5771492828586093, -0.07094816067085818, 1.7606975919346601, 1.935981295681723, 0.7448439466974373, 1.1264835644574265, -1.715778941264957, -1.8820284021616849, -0.9839967248934807]]], "shape": [3, 16, 16], "rank": 3 }, "type": "maxpooling", "name": "", "isTrainable": false, "poolSize": [2, 2], "stride": [2, 2], "padding": false, "inputShape": [3, 16, 16], "padAmt": [0, 0], "outputShape": [3, 8, 8], "coords": [] }, { "input": { "data": [[[1.9214940609904243, 0.6416956145412445, 1.5792373046631276, 0.2003538333440651, -0.1416020498001207, 1.9784792348590625, 1.593319683869582, 0.6357483430771738], [0.8737373139659068, 1.1597140419173146, 1.575810907330312, -0.008708177138052386, -0.7609231384483075, -0.01271447634116507, 1.018095790875436, 1.3615799428748407], [1.403635587423857, 1.8965884039552359, 0.9165885824102005, 0.54510902395983, 0.23887281187646003, 1.3859016420538657, 0.4981141862026379, 1.9348845356520874], [1.5939682036074774, 0.7451582876062999, 1.8319102731821486, 1.3511853072740274, -0.5149966708221372, 1.2355310708024376, 0.7461340449264111, 1.5609174649917423], [0.30556825930291387, 2.0198348413085947, 1.3920994675071066, 0.352943440582989, -0.7437663138836588, 2.5935760508470787, 3.068124577059862, 2.08636374428436], [0.2482486274714808, 1.685598098172465, 1.322137711525265, 0.6515673255672361, 0.07208261696369878, 1.590723502563638, 1.7319394585987857, 1.3074789665976034], [0.9312432748949742, 1.2092646685506363, 1.1837923723587789, -0.5594136208348324, -1.073115993925867, 1.2887473671077556, 1.706274991101481, 1.0288594673685347], [1.4547078213989924, 1.7213939875177395, 1.27269743907731, 0.5585567358371601, 1.374406761320802, 1.7209164554831795, 1.1199034212359362, 1.4651637116107152]], [[1.8348190617594056, 1.9720275781521885, 1.435678963643893, 1.6708934640222484, 0.980703710976337, 1.4871441877522815, 1.6273939589203512, 1.5554828454554355], [1.9987224821634415, 1.6967265185610714, 1.638531699908766, 1.4774019402932526, -0.019517413249141358, 1.7487469767108852, 1.9689509737583175, 0.2509626081082379], [0.12285607215620109, 1.5290530814511687, 0.7158251679376519, 1.3955525480777398, 0.4470328947504141, 1.559010042645752, 1.7801525127196194, 1.028423369274352], [0.2327651817358949, 0.30615800100615154, 1.0797597278460684, 0.5112136962308744, -0.4250659081668715, 0.5530035111470739, 0.21643329241516085, 1.0670190425886346], [-0.5435896365076982, 0.07986345263632688, 1.83663238199894, 0.8667608869401477, -0.7412750999411857, 1.0590483876765842, 1.6860580258011806, 1.523122353697101], [0.672302681721991, 1.733427418345169, 1.5410440131363718, 1.0182179358571093, -0.5439120190165718, 1.8495728177636748, 1.918954690935606, 1.3258348910060942], [1.788758724183631, -0.33277543542818133, 1.4199134884588411, 1.091223192872906, 0.4210387340029591, 1.151079713032853, 1.4522933062438699, 0.11738342000131574], [1.2834913525400902, -0.5066106274929338, 1.43133880028084, 1.4697396795115267, 0.3874603800542191, 1.2996178627520343, 1.039661194225034, 1.9184288488715873]], [[1.894768496070554, 1.865570204021184, 1.1162277988328189, 0.08734269650191973, 1.4880925171656978, 0.9423534845002459, 1.6048704576829853, 1.5589493159989627], [1.0109503230535872, 1.895435531767932, 0.6544148753255863, 1.264587370052952, 1.475697035008024, 0.9088839814743115, 1.563670855155073, 1.7442931195069744], [1.8949679755231723, 1.7277722993215607, 1.746208812338344, 0.9286093943378622, 1.5343232415229657, -0.10533934281950685, 1.9137961559416752, -0.08564919704841323], [1.924598010418495, 2.407478824334456, 1.970512566122977, 0.14638137414817098, 3.596380590760954, 1.4063130563769817, 1.9244902294163484, 0.808118322678147], [3.4850862729694523, 4.87423464368479, 4.470969151688327, 4.416363785586158, 5.149397608853366, 4.206527575124446, 5.372833452258648, 3.335506319750065], [1.7024099444639194, 0.6576455940116896, 1.3360352372594444, -0.29713993473611433, 1.9525573703481585, 1.4928401984140027, 1.85085237514155, 1.6133494793730594], [0.8408202320302705, -0.015374168287600298, 1.982452530221558, 0.7772883653800449, 0.12839121995770775, 1.7131638421058968, 0.7325455365548357, 1.3116139361811223], [1.9555249805903645, 0.7668633071030793, 1.1053553755568584, 1.1042698415014023, 2.484610702333957, 1.935981295681723, 1.1264835644574265, 0.2852077974883169]]], "shape": [3, 8, 8], "rank": 3 }, "type": "activation", "name": "relu", "isTrainable": false, "inputShape": [3, 8, 8], "outputShape": [3, 8, 8], "forwardedInput": { "data": [[[1.9214940609904243, 0.6416956145412445, 1.5792373046631276, 0.2003538333440651, 0, 1.9784792348590625, 1.593319683869582, 0.6357483430771738], [0.8737373139659068, 1.1597140419173146, 1.575810907330312, 0, 0, 0, 1.018095790875436, 1.3615799428748407], [1.403635587423857, 1.8965884039552359, 0.9165885824102005, 0.54510902395983, 0.23887281187646003, 1.3859016420538657, 0.4981141862026379, 1.9348845356520874], [1.5939682036074774, 0.7451582876062999, 1.8319102731821486, 1.3511853072740274, 0, 1.2355310708024376, 0.7461340449264111, 1.5609174649917423], [0.30556825930291387, 2.0198348413085947, 1.3920994675071066, 0.352943440582989, 0, 2.5935760508470787, 3.068124577059862, 2.08636374428436], [0.2482486274714808, 1.685598098172465, 1.322137711525265, 0.6515673255672361, 0.07208261696369878, 1.590723502563638, 1.7319394585987857, 1.3074789665976034], [0.9312432748949742, 1.2092646685506363, 1.1837923723587789, 0, 0, 1.2887473671077556, 1.706274991101481, 1.0288594673685347], [1.4547078213989924, 1.7213939875177395, 1.27269743907731, 0.5585567358371601, 1.374406761320802, 1.7209164554831795, 1.1199034212359362, 1.4651637116107152]], [[1.8348190617594056, 1.9720275781521885, 1.435678963643893, 1.6708934640222484, 0.980703710976337, 1.4871441877522815, 1.6273939589203512, 1.5554828454554355], [1.9987224821634415, 1.6967265185610714, 1.638531699908766, 1.4774019402932526, 0, 1.7487469767108852, 1.9689509737583175, 0.2509626081082379], [0.12285607215620109, 1.5290530814511687, 0.7158251679376519, 1.3955525480777398, 0.4470328947504141, 1.559010042645752, 1.7801525127196194, 1.028423369274352], [0.2327651817358949, 0.30615800100615154, 1.0797597278460684, 0.5112136962308744, 0, 0.5530035111470739, 0.21643329241516085, 1.0670190425886346], [0, 0.07986345263632688, 1.83663238199894, 0.8667608869401477, 0, 1.0590483876765842, 1.6860580258011806, 1.523122353697101], [0.672302681721991, 1.733427418345169, 1.5410440131363718, 1.0182179358571093, 0, 1.8495728177636748, 1.918954690935606, 1.3258348910060942], [1.788758724183631, 0, 1.4199134884588411, 1.091223192872906, 0.4210387340029591, 1.151079713032853, 1.4522933062438699, 0.11738342000131574], [1.2834913525400902, 0, 1.43133880028084, 1.4697396795115267, 0.3874603800542191, 1.2996178627520343, 1.039661194225034, 1.9184288488715873]], [[1.894768496070554, 1.865570204021184, 1.1162277988328189, 0.08734269650191973, 1.4880925171656978, 0.9423534845002459, 1.6048704576829853, 1.5589493159989627], [1.0109503230535872, 1.895435531767932, 0.6544148753255863, 1.264587370052952, 1.475697035008024, 0.9088839814743115, 1.563670855155073, 1.7442931195069744], [1.8949679755231723, 1.7277722993215607, 1.746208812338344, 0.9286093943378622, 1.5343232415229657, 0, 1.9137961559416752, 0], [1.924598010418495, 2.407478824334456, 1.970512566122977, 0.14638137414817098, 3.596380590760954, 1.4063130563769817, 1.9244902294163484, 0.808118322678147], [3.4850862729694523, 4.87423464368479, 4.470969151688327, 4.416363785586158, 5.149397608853366, 4.206527575124446, 5.372833452258648, 3.335506319750065], [1.7024099444639194, 0.6576455940116896, 1.3360352372594444, 0, 1.9525573703481585, 1.4928401984140027, 1.85085237514155, 1.6133494793730594], [0.8408202320302705, 0, 1.982452530221558, 0.7772883653800449, 0.12839121995770775, 1.7131638421058968, 0.7325455365548357, 1.3116139361811223], [1.9555249805903645, 0.7668633071030793, 1.1053553755568584, 1.1042698415014023, 2.484610702333957, 1.935981295681723, 1.1264835644574265, 0.2852077974883169]]], "shape": [3, 8, 8], "rank": 3 } }, { "input": { "data": [[[1.9214940609904243, 0.6416956145412445, 1.5792373046631276, 0.2003538333440651, 0, 1.9784792348590625, 1.593319683869582, 0.6357483430771738], [0.8737373139659068, 1.1597140419173146, 1.575810907330312, 0, 0, 0, 1.018095790875436, 1.3615799428748407], [1.403635587423857, 1.8965884039552359, 0.9165885824102005, 0.54510902395983, 0.23887281187646003, 1.3859016420538657, 0.4981141862026379, 1.9348845356520874], [1.5939682036074774, 0.7451582876062999, 1.8319102731821486, 1.3511853072740274, 0, 1.2355310708024376, 0.7461340449264111, 1.5609174649917423], [0.30556825930291387, 2.0198348413085947, 1.3920994675071066, 0.352943440582989, 0, 2.5935760508470787, 3.068124577059862, 2.08636374428436], [0.2482486274714808, 1.685598098172465, 1.322137711525265, 0.6515673255672361, 0.07208261696369878, 1.590723502563638, 1.7319394585987857, 1.3074789665976034], [0.9312432748949742, 1.2092646685506363, 1.1837923723587789, 0, 0, 1.2887473671077556, 1.706274991101481, 1.0288594673685347], [1.4547078213989924, 1.7213939875177395, 1.27269743907731, 0.5585567358371601, 1.374406761320802, 1.7209164554831795, 1.1199034212359362, 1.4651637116107152]], [[1.8348190617594056, 1.9720275781521885, 1.435678963643893, 1.6708934640222484, 0.980703710976337, 1.4871441877522815, 1.6273939589203512, 1.5554828454554355], [1.9987224821634415, 1.6967265185610714, 1.638531699908766, 1.4774019402932526, 0, 1.7487469767108852, 1.9689509737583175, 0.2509626081082379], [0.12285607215620109, 1.5290530814511687, 0.7158251679376519, 1.3955525480777398, 0.4470328947504141, 1.559010042645752, 1.7801525127196194, 1.028423369274352], [0.2327651817358949, 0.30615800100615154, 1.0797597278460684, 0.5112136962308744, 0, 0.5530035111470739, 0.21643329241516085, 1.0670190425886346], [0, 0.07986345263632688, 1.83663238199894, 0.8667608869401477, 0, 1.0590483876765842, 1.6860580258011806, 1.523122353697101], [0.672302681721991, 1.733427418345169, 1.5410440131363718, 1.0182179358571093, 0, 1.8495728177636748, 1.918954690935606, 1.3258348910060942], [1.788758724183631, 0, 1.4199134884588411, 1.091223192872906, 0.4210387340029591, 1.151079713032853, 1.4522933062438699, 0.11738342000131574], [1.2834913525400902, 0, 1.43133880028084, 1.4697396795115267, 0.3874603800542191, 1.2996178627520343, 1.039661194225034, 1.9184288488715873]], [[1.894768496070554, 1.865570204021184, 1.1162277988328189, 0.08734269650191973, 1.4880925171656978, 0.9423534845002459, 1.6048704576829853, 1.5589493159989627], [1.0109503230535872, 1.895435531767932, 0.6544148753255863, 1.264587370052952, 1.475697035008024, 0.9088839814743115, 1.563670855155073, 1.7442931195069744], [1.8949679755231723, 1.7277722993215607, 1.746208812338344, 0.9286093943378622, 1.5343232415229657, 0, 1.9137961559416752, 0], [1.924598010418495, 2.407478824334456, 1.970512566122977, 0.14638137414817098, 3.596380590760954, 1.4063130563769817, 1.9244902294163484, 0.808118322678147], [3.4850862729694523, 4.87423464368479, 4.470969151688327, 4.416363785586158, 5.149397608853366, 4.206527575124446, 5.372833452258648, 3.335506319750065], [1.7024099444639194, 0.6576455940116896, 1.3360352372594444, 0, 1.9525573703481585, 1.4928401984140027, 1.85085237514155, 1.6133494793730594], [0.8408202320302705, 0, 1.982452530221558, 0.7772883653800449, 0.12839121995770775, 1.7131638421058968, 0.7325455365548357, 1.3116139361811223], [1.9555249805903645, 0.7668633071030793, 1.1053553755568584, 1.1042698415014023, 2.484610702333957, 1.935981295681723, 1.1264835644574265, 0.2852077974883169]]], "shape": [3, 8, 8], "rank": 3 }, "type": "conv", "name": "conv", "isTrainable": true, "weights": { "data": [[[[-1.730504990385293, -1.3729819929026832, -0.4809574549386524], [-0.002106638312351698, -0.645015085801973, -1.2978847236966489], [-0.18688243439020144, -1.6649281604964752, -0.8316593131790362]], [[-0.4356605453236621, 1.376864762478376, -1.6974381778558778], [-1.3121834727436537, -1.0307225166993252, 0.09909539373914149], [-0.6432832261131882, -1.091814388874081, -1.1028651800672133]], [[1.7698856852239568, -1.8699371244789904, -1.811330424118209], [-1.0877847051141987, -1.070848299662974, -0.3415172069436511], [-0.6791724103175908, -0.9370939165677712, -0.21218777759700244]]], [[[-1.7953834327369713, -0.5105938409997886, 0.9379047908518942], [-1.7669317718445725, -1.8199764484611936, 1.2778523089512945], [-0.5792968725703795, -0.6015978689532758, 1.7255550236601116]], [[0.7908542093540777, -0.44210648593404467, 0.746726707562858], [0.33914775745187054, -0.2788558940293939, 0.15546627425525297], [-1.1728450203194647, -0.6713240906091026, 1.7041591237919074]], [[-0.16786826193014312, -0.18339084559500754, -1.7793988017418174], [1.2092232881509044, 1.2006228191954924, -1.0180196225044964], [-1.203934959152846, -0.5277242731366679, -0.6037216182116341]]]], "shape": [2, 3, 3, 3], "rank": 4 }, "bias": { "data": [[[-1.3644019510962713, -0.8009470452922531, -0.9732104824564776, 1.3066263814868893, -1.081851998201679, -0.5373546971742569, -0.4677850374450875, -0.8282708812369519], [-0.5219730407075498, 1.5925525845830797, -0.047643669740300904, -1.1271584493565445, 1.7201923777046937, 0.9461327080556597, 0.3929061162357821, -0.5459359481296526], [-0.2024780899019225, 0.07406422112273746, -0.02703210053317321, -0.7834528822852165, -0.22407342562691768, 0.9309982961667246, -0.5831597179717363, -0.3624339141449857], [-0.50275454922842, 0.007902834849618151, -0.8235207736866035, 0.565865610986909, -0.3275224654137652, -0.93023467653561, -1.2690136171571431, -1.147415995264145], [-0.5561622422698254, -0.2564583524658324, 0.10300765364429147, -0.07325881399516386, -0.8299917587030488, -0.8585543911154914, -0.4433599247358764, -0.8477564660005545], [0.8581990281887704, -0.1428364275277303, 0.7622017305904456, 0.7021111298356832, -0.6007378575760145, 0.7375452357548933, -0.2400159402612243, -0.3309768961047994], [-0.7568199314823161, 0.8926812604998787, -0.5800934106411635, 1.7539641363795277, 0.14817320208510276, 1.5372231092152635, 1.8012501025475214, 0.0432293304594944], [-0.5447433785435765, -0.48575929029442944, -0.6350088118273627, 1.223869771504714, 0.8694768994946152, -0.8027870908008312, 0.8293695726484023, 1.460351610386042]], [[-0.8705991143799032, 1.6032952372529923, -0.19694944723543406, -0.5343253150755505, -0.40982491990176567, 1.273004862760905, -0.588316121282368, -0.22831515458782106], [-0.06676533497590874, -0.7297683548996372, 0.449844534358888, -0.06023002964526199, 0.5043829252235441, 0.8648813750776907, 1.1066684276934247, -0.2137531642708621], [1.2259601907998916, 1.4214454004190253, -0.9461533825727293, -0.5073949138362448, 1.631516561331214, -0.7925829603013621, 0.38098842247333514, 0.92538060049], [-1.8701610473128252, -1.8541090377300389, 0.07454135912495838, -0.5168314504005933, 0.5813182469682469, -1.014503143552729, -1.0269474919342938, 1.281844989272576], [0.06522790996563639, 0.06700606252362674, -0.6664633990549957, -0.8255713071362989, 0.6520084881237282, -1.2504985230728258, -0.8974514719633466, 1.7438920136840832], [-0.76821098371046, -0.44268863387258167, -0.7461838834524696, -0.5423797500347616, -1.775464871650487, -0.540762151752567, -0.7229943168662952, -0.8838268953502455], [0.24817196282961201, 1.1974315192847325, 0.7479513761843062, -0.5337032704890114, -1.490276124804064, -0.15208043082660036, 1.4546458783077347, -0.17680147930018753], [-0.5219824995695396, 0.10474015654528324, 0.31389784902587436, -0.6632125581302741, 0.02419924697896445, -0.13985759247631568, -0.06253443482056686, -0.4221601917725416]]], "shape": [2, 8, 8], "rank": 3 }, "batchSize": 0, "weightsConstrain": [-10000000, 10000000], "biasConstrain": [-10000000, 10000000], "weightsGradient": { "data": [[[[0, 0, 0], [0, 0, 0], [0, 0, 0]], [[0, 0, 0], [0, 0, 0], [0, 0, 0]], [[0, 0, 0], [0, 0, 0], [0, 0, 0]]], [[[0, 0, 0], [0, 0, 0], [0, 0, 0]], [[0, 0, 0], [0, 0, 0], [0, 0, 0]], [[0, 0, 0], [0, 0, 0], [0, 0, 0]]]], "shape": [2, 3, 3, 3], "rank": 4 }, "biasGradient": { "data": [[[0, 0, 0, 0, 0, 0, 0, 0], [0, 0, 0, 0, 0, 0, 0, 0], [0, 0, 0, 0, 0, 0, 0, 0], [0, 0, 0, 0, 0, 0, 0, 0], [0, 0, 0, 0, 0, 0, 0, 0], [0, 0, 0, 0, 0, 0, 0, 0], [0, 0, 0, 0, 0, 0, 0, 0], [0, 0, 0, 0, 0, 0, 0, 0]], [[0, 0, 0, 0, 0, 0, 0, 0], [0, 0, 0, 0, 0, 0, 0, 0], [0, 0, 0, 0, 0, 0, 0, 0], [0, 0, 0, 0, 0, 0, 0, 0], [0, 0, 0, 0, 0, 0, 0, 0], [0, 0, 0, 0, 0, 0, 0, 0], [0, 0, 0, 0, 0, 0, 0, 0], [0, 0, 0, 0, 0, 0, 0, 0]]], "shape": [2, 8, 8], "rank": 3 }, "optimizerWeights": [{ "data": [[[[0, 0, 0], [0, 0, 0], [0, 0, 0]], [[0, 0, 0], [0, 0, 0], [0, 0, 0]], [[0, 0, 0], [0, 0, 0], [0, 0, 0]]], [[[0, 0, 0], [0, 0, 0], [0, 0, 0]], [[0, 0, 0], [0, 0, 0], [0, 0, 0]], [[0, 0, 0], [0, 0, 0], [0, 0, 0]]]], "shape": [2, 3, 3, 3], "rank": 4 }, { "data": [[[[0.00013564896183079674, 0.000046482100824912404, 0.00005061528531904396], [0.0002358008870348182, 0.0003588062726170492, 0.0002832221821076326], [0.00012084818066168405, 0.00043382819227086544, 0.00034181095479713215]], [[0.00001631916450858167, -0.00004110081079460779, 0.00008111139820095819], [0.0002279229873403388, 0.00013326800839180401, 0.00031564247819207593], [0.00022249221223559338, 0.0004246025859788491, 0.00041629742211405474]], [[-0.000006012855052926807, 0.00004757301642516642, 0.00012612824529243218], [0.000540766877956598, 0.0008409736921276907, 0.0002941480152594414], [0.0005963466592433095, 0.0005192000032366647, 0.00044290995789560166]]], [[[0.00022558688294720787, 0.00011112373858378811, -0.00004042343854223354], [0.00007564977504424176, 0.00012484719369981154, -0.00009935169046031007], [0.0000823490630606749, 0.00023519228792042508, -0.00013282413717593568]], [[-0.00003241077014442878, 0.00010921204658078512, -0.00002240598695310187], [-0.00003487413727868736, 0.00022802745269286765, -0.00008505031300060054], [0.000030142187452729402, 0.00014021733013033278, -0.00013068582170311743]], [[0.00047812796447568303, 0.0003062839355576614, 0.0005296080853792454], [-0.00003551581367421758, -0.00026346235390165815, 0.00011663526851496159], [0.00043013098302192816, 0.00013159088527085652, 0.0005596169298538495]]]], "shape": [2, 3, 3, 3], "rank": 4 }, { "data": [[[[0.012470048702777105, 0.0014642212244209115, 0.0017361953138276087], [0.0376813167061096, 0.08724795463238101, 0.054361287001208194], [0.009897270368351085, 0.1275471454483706, 0.07917847920429648]], [[0.00018048081436079753, 0.0011448167620499343, 0.0044586047744186764], [0.035205576306653136, 0.012036134052743279, 0.06751901376417681], [0.03354786058162352, 0.12218009844911724, 0.11744719370932331]], [[0.00002450172553320124, 0.0015337570767718321, 0.010781021415059142], [0.19817796629245596, 0.47929182474806487, 0.05863636583765166], [0.2410087345353853, 0.18268570859176625, 0.13294318837067728]]], [[[0.03448759325809869, 0.008368524449683756, 0.001107392830336168], [0.003878381110084248, 0.010563133549606639, 0.006689377776547139], [0.00459570904468908, 0.03748705771404112, 0.01195609089024342]], [[0.0007118916561826171, 0.008083069116116708, 0.00034022275620088825], [0.0008242180983167899, 0.03523785568144315, 0.00490215493834169], [0.0006157220884561252, 0.01332412161436523, 0.011574231026907019]], [[0.15492570869222586, 0.06357460035703713, 0.19008349759209112], [0.0008548279994891664, 0.04704054410479313, 0.00921923718079322], [0.12538242184246765, 0.011735100636005752, 0.21223494355592187]]]], "shape": [2, 3, 3, 3], "rank": 4 }], "optimizerBias": [{ "data": [[[0, 0, 0, 0, 0, 0, 0, 0], [0, 0, 0, 0, 0, 0, 0, 0], [0, 0, 0, 0, 0, 0, 0, 0], [0, 0, 0, 0, 0, 0, 0, 0], [0, 0, 0, 0, 0, 0, 0, 0], [0, 0, 0, 0, 0, 0, 0, 0], [0, 0, 0, 0, 0, 0, 0, 0], [0, 0, 0, 0, 0, 0, 0, 0]], [[0, 0, 0, 0, 0, 0, 0, 0], [0, 0, 0, 0, 0, 0, 0, 0], [0, 0, 0, 0, 0, 0, 0, 0], [0, 0, 0, 0, 0, 0, 0, 0], [0, 0, 0, 0, 0, 0, 0, 0], [0, 0, 0, 0, 0, 0, 0, 0], [0, 0, 0, 0, 0, 0, 0, 0], [0, 0, 0, 0, 0, 0, 0, 0]]], "shape": [2, 8, 8], "rank": 3 }, { "data": [[[0.000013911789264307359, 0, 0.000055552184015299945, -0.000034551394428673176, 0.00002855796232000573, 0.00006454866952754531, 0.00003968899616290849, 0.00001419279438962124], [0, -0.000022920653502170636, -0.000012631371483344918, 0.000044160077228183345, -0.000014843233665601864, -0.000012225681264393447, 0, 0], [0, 0.00000490673123657658, 0.00002711273888704448, 0.000005167758371676473, 0, -0.000004372087419643126, 0, 0], [0, 0.00003755083225172706, 0, -0.00005732937834926418, 0.00002219051045194815, 0, 0.00003891869984641685, 0.000007092678014963701], [0, 0.000052310949808236224, -0.000020044577879558967, 0.000019594636812100525, 0, 0, 0.000008181495088577128, 0.0000381368291798907], [0, 0, 0, 0, 0, 0, 0, 0], [0, -0.000008654037721101303, 0, -0.0000011080205143235229, 0, -0.000013760071658581438, -0.000016191964728496875, 0], [0, 0.000040461186516251545, 0, -0.00003004534456172881, -0.000012691788874873014, 0, -0.00004704760658375498, -0.000027306042195848926]], [[0, -0.00004509959692364281, 0, 0.000031670847384525755, 0.000006915756202883787, -0.000013510891985814974, 0, 0.00003167981227102299], [0.000027145989738927285, 0, -2.5957686670183155e-7, 0.000028169893739720497, -0.00004839209384744327, -0.000020098944404143257, -0.000003216236485812128, 0], [-0.000019532379039281463, -0.00003139167102602114, 0.0000023289804847651308, 0.0000435760154549051, -0.000054221507292933736, 0, -0.000015205721402828868, -0.00001538663462368454], [0.000014941215386205765, 0.000009122631083070601, 0.000034880303764035963, 0.000005573388560751465, -0.000005125431076683877, 0.000021643363201437085, 0.000027118195082644144, -0.0000038081489471223554], [-0.00001550604296517164, -0.0000037516423113448005, 0.000015318715959175536, 0, -0.0000580204467789287, 0.000023734666182003533, 0, -0.000032992826512325], [0.000007906113141284651, 0.00002612201545489541, 0.000025044975942151908, 0.00004188441062682376, 0.000004704712509752751, 0.000006210361504876771, 0.000002406236828013119, 0.0000034158931827496354], [-0.00001116708906666706, -0.000017389882139614284, -0.0000097587956088646, 0, 0.00003807564327926757, 0.0000017845092076681365, -0.00002459909308425756, 0], [0.000013698883978928334, 0, 0, 0, 2.901951525977243e-22, 0, 0.000005851235220489453, 0.00002148544770022114]]], "shape": [2, 8, 8], "rank": 3 }, { "data": [[[0.00013115993167443706, 0, 0.002091401795618174, 0.000809033229465062, 0.0005527002150181685, 0.0028236430272820267, 0.0010675185497507178, 0.00013651206099103087], [0, 0.00035603213021744284, 0.00010812751361712217, 0.001321584235412209, 0.00014931115314825274, 0.00010129344441611188, 0, 0], [0, 0.000016316227113616878, 0.0004981750627294811, 0.000018098375702621986, 0, 0.000012954267928442673, 0, 0], [0, 0.000955596025504935, 0, 0.002227356153414879, 0.0003337104341897491, 0, 0.0010264832047141442, 0.000034092252039505855], [0, 0.0018544725625003473, 0.0002722883315094686, 0.00026020140511810616, 0, 0, 0.00004536287266872155, 0.0009856537173190104], [0, 0, 0, 0, 0, 0, 0, 0], [0, 0.00005075429139700818, 0, 8.320143243595087e-7, 0, 0.00012831475298101291, 0.00017767826277037638, 0], [0, 0.0011094619939138735, 0, 0.0006117719757954746, 0.00010916436157641291, 0, 0.001500065665159766, 0.0005053039754701897]], [[0, 0.0013784166865117302, 0, 0.0006797583765830992, 0.00003241265084437877, 0.00012370955509516512, 0, 0.0006801432617178993], [0.0004993977280403386, 0, 4.5663287259143806e-8, 0.0005377812033626492, 0.0015870259514877006, 0.00027376737944022166, 0.000007010211965751703, 0], [0.00025855056312481595, 0.0006678271484561877, 0.0000036759271845670133, 0.0012868568351263713, 0.0019924084438392308, 0, 0.00015669287870365882, 0.00016044363141146537], [0.00015128889604621126, 0.00005639952235340404, 0.0008245096024842995, 0.000021051053976702088, 0.00001780311497741349, 0.00031745684518819344, 0.0004983755894337096, 0.000009827952618312627], [0.0001629435474294913, 0.00000953845535904695, 0.0001590303182635858, 0, 0.0022813784689090693, 0.00038176970020251236, 0, 0.0007376905970779312], [0.000042360516927872226, 0.0004624327302625602, 0.00042508564452213284, 0.0011888854674506153, 0.000015000349619076866, 0.000026137795960132607, 0.000003923845871943955, 0.000007907583092449281], [0.00008451137370151173, 0.00020494082407579724, 0.0000645398044590612, 0, 0.0009824935315782882, 0.000002158106075506514, 0.00041008453617067894, 0], [0.0001271761214640675, 0, 0, 0, 4.504535926620605e-44, 0, 0.00002320226140348473, 0.0003128412527988699]]], "shape": [2, 8, 8], "rank": 3 }], "parameters": 182, "filters": 2, "padding": "same", "kernelSize": [3, 3], "stride": [1, 1], "dilation": [1, 1], "kernelGradientPad": [2, 2], "inputGradientPad": "same", "inputShape": [3, 8, 8], "kernelShape": [2, 3, 3, 3], "padAmt": [2, 2], "outputShape": [2, 8, 8] }, { "input": { "data": [[[-18.34896275367511, -24.559381123541907, -20.87435905167059, -6.4413655198763315, -16.193239243508152, -17.903109199418523, -18.84190897901159, -16.74590525407413], [-25.82316277518948, -23.21925328324471, -20.80680546797032, -19.644129430037538, -14.231548502755, -18.02987755413503, -28.49557901711919, -18.083245713170193], [-19.957069873269234, -25.203588484123287, -23.141730855348456, -20.133867771122905, -19.18260664537528, -14.120054594239262, -22.886833905544755, -18.558087189707535], [-25.110947805628374, -30.946133384755683, -34.82933367823401, -18.916244813093982, -26.162875109447846, -34.02026462139966, -38.71999874951631, -21.85270783722194], [-26.776605671933325, -35.18927310988407, -26.895722847822643, -28.012849506291964, -38.15628303298835, -33.86241248096913, -40.812829821932255, -25.20913405811386], [-24.510775142219302, -33.66397135457899, -24.58295489455213, -20.666707384800986, -25.64761031505987, -30.597905575188065, -39.56088644952771, -17.825062169489215], [-21.977254156293192, -16.85820384353447, -20.871000554745404, -11.954052076720362, -26.59189530124104, -19.40247686895394, -22.96315576877793, -14.753363347831435], [-9.454948468820913, -18.22348349385183, -15.908949449306032, -5.119725415757493, -11.671476646662537, -19.836718440456657, -10.617871931864133, -7.431013520738864]], [[-3.7707199272513163, 4.1670838409091076, -5.890177549248459, -10.817061300427374, 0.7995195455806035, 4.460075127730561, -9.756903801421384, -7.416187040591509], [-1.794172559966202, -8.400477480280253, -5.867441070683303, -11.653488969064163, 6.915613226753758, 1.8847085412975115, -0.9315047217400707, -10.011182875113047], [-0.043320538960458066, -0.11817223335661975, -10.680593967093408, -15.49907633642352, 7.966567664730283, -12.021408146969204, 0.020863451832290103, -5.738199290780429], [-10.332915170814564, -15.816523561331675, -13.521229091271746, -27.3120839433287, 0.575245726866692, -9.48618469324201, -10.650037342178608, -12.75152019451039], [0.7956953075244462, -2.80356288042041, -6.5968903815328765, -16.15040819170555, 11.059343475041473, -3.3140205415944024, -8.602237107577599, -4.256354440222172], [-6.778236627448075, -11.156410454350388, -19.700170941536943, -22.763866719711196, -8.42898846897813, -7.354976734475249, -19.804073646284962, -16.025395063633436], [1.8132206759081029, -3.0237612497187114, -4.108790262354512, -9.939260057002887, -5.344328937399599, -5.851195312094153, -3.6472624214793274, -11.493427599238245], [-1.0907217602836257, -3.317737943423837, -7.077710032184171, -5.103945435716811, 1.2659034204375175, -0.22470815424077628, -4.161789698396434, -7.244963357669888]]], "shape": [2, 8, 8], "rank": 3 }, "type": "activation", "name": "relu", "isTrainable": false, "inputShape": [2, 8, 8], "outputShape": [2, 8, 8], "forwardedInput": { "data": [[[0, 0, 0, 0, 0, 0, 0, 0], [0, 0, 0, 0, 0, 0, 0, 0], [0, 0, 0, 0, 0, 0, 0, 0], [0, 0, 0, 0, 0, 0, 0, 0], [0, 0, 0, 0, 0, 0, 0, 0], [0, 0, 0, 0, 0, 0, 0, 0], [0, 0, 0, 0, 0, 0, 0, 0], [0, 0, 0, 0, 0, 0, 0, 0]], [[0, 4.1670838409091076, 0, 0, 0.7995195455806035, 4.460075127730561, 0, 0], [0, 0, 0, 0, 6.915613226753758, 1.8847085412975115, 0, 0], [0, 0, 0, 0, 7.966567664730283, 0, 0.020863451832290103, 0], [0, 0, 0, 0, 0.575245726866692, 0, 0, 0], [0.7956953075244462, 0, 0, 0, 11.059343475041473, 0, 0, 0], [0, 0, 0, 0, 0, 0, 0, 0], [1.8132206759081029, 0, 0, 0, 0, 0, 0, 0], [0, 0, 0, 0, 1.2659034204375175, 0, 0, 0]]], "shape": [2, 8, 8], "rank": 3 } }, { "input": { "data": [[[0, 0, 0, 0, 0, 0, 0, 0], [0, 0, 0, 0, 0, 0, 0, 0], [0, 0, 0, 0, 0, 0, 0, 0], [0, 0, 0, 0, 0, 0, 0, 0], [0, 0, 0, 0, 0, 0, 0, 0], [0, 0, 0, 0, 0, 0, 0, 0], [0, 0, 0, 0, 0, 0, 0, 0], [0, 0, 0, 0, 0, 0, 0, 0]], [[0, 4.1670838409091076, 0, 0, 0.7995195455806035, 4.460075127730561, 0, 0], [0, 0, 0, 0, 6.915613226753758, 1.8847085412975115, 0, 0], [0, 0, 0, 0, 7.966567664730283, 0, 0.020863451832290103, 0], [0, 0, 0, 0, 0.575245726866692, 0, 0, 0], [0.7956953075244462, 0, 0, 0, 11.059343475041473, 0, 0, 0], [0, 0, 0, 0, 0, 0, 0, 0], [1.8132206759081029, 0, 0, 0, 0, 0, 0, 0], [0, 0, 0, 0, 1.2659034204375175, 0, 0, 0]]], "shape": [2, 8, 8], "rank": 3 }, "type": "flatten", "name": "", "isTrainable": false, "inputShape": [2, 8, 8], "outputShape": 128 }, { "input": { "data": [0, 0, 0, 0, 0, 0, 0, 0, 0, 0, 0, 0, 0, 0, 0, 0, 0, 0, 0, 0, 0, 0, 0, 0, 0, 0, 0, 0, 0, 0, 0, 0, 0, 0, 0, 0, 0, 0, 0, 0, 0, 0, 0, 0, 0, 0, 0, 0, 0, 0, 0, 0, 0, 0, 0, 0, 0, 0, 0, 0, 0, 0, 0, 0, 0, 4.1670838409091076, 0, 0, 0.7995195455806035, 4.460075127730561, 0, 0, 0, 0, 0, 0, 6.915613226753758, 1.8847085412975115, 0, 0, 0, 0, 0, 0, 7.966567664730283, 0, 0.020863451832290103, 0, 0, 0, 0, 0, 0.575245726866692, 0, 0, 0, 0.7956953075244462, 0, 0, 0, 11.059343475041473, 0, 0, 0, 0, 0, 0, 0, 0, 0, 0, 0, 1.8132206759081029, 0, 0, 0, 0, 0, 0, 0, 0, 0, 0, 0, 1.2659034204375175, 0, 0, 0], "shape": [128], "rank": 1 }, "type": "dense", "name": "", "isTrainable": true, "weights": { "data": [[-1.6991432315763622, 0.664088716731301, -0.3997983320262694, -0.0005114157025694425, -1.0071721050254487, -0.8153787635376576, -0.06285591098971735, -0.3394011291911995, -0.48141733349909677, -0.4240370759130836, -0.7677848618673392, -1.4854592667794357, -1.2095704177041848, -1.5212525067327896, 0.8784826366010114, -0.908420469293288, 0.7138955469374209, -1.5864073811692665, -0.7127588839272672, -0.6457778623861895, 0.9566936834927557, -1.1798117085312463, 0.03392727842830334, 0.5115903774158879, -0.18668739419912161, -1.439153668642488, 0.9919643506317024, -0.8994873353699165, -0.9530218796112008, -0.6338779316695649, -1.198102181150273, -0.9657152829711652, -0.2568744882292364, -1.8093127417334396, -0.9277870063609198, -0.9712665004567232, 0.7679544288141618, 0.0007913273180266689, -1.2966454468175792, -0.6833627324610189, -0.3873539186428765, 0.5448017434101617, -0.9061517079203654, -0.6863217585641326, -0.1621705671389555, -0.6756741143732663, -0.5737732871032786, -0.09169002430766837, 0.4170462810154578, -0.9435828862465498, 0.2769679963125151, -1.7575170187868465, -0.09279977454476351, -1.7600098159190585, -1.7186947496299707, -0.7325878113283324, -0.4964039946852541, -1.6720100251348335, 0.21284178767859419, -0.06409682735042986, 0.008991726756438907, -0.25755792289029444, -1.2518391660115302, -1.537385158379909, 0.10228906194645648, 0.04958711462877544, 0.583707800056156, -0.6940223907090323, -0.6954634100753759, -0.30872325421144703, -0.9315341873952325, -0.933315037730628, -0.13550159677398027, 0.3213760652549331, -1.0196889553259805, -0.11606088436998316, -1.3799949848573378, -0.015167221023570238, -0.7592198930232774, 0.2380899197371047, -1.2749743243144405, -1.527122176951393, -0.8075168013248234, -0.2041849536674986, -0.33756364491473756, 0.630940091109645, -0.9026654434434753, -1.6237133850010381, 0.03128251144335295, -1.2936640075304973, 0.01891402294558789, -0.8351050658376648, -1.6441674153837231, -1.0100491411703312, -0.8680361908434245, 0.07768191795216518, -1.8113525221441802, 0.0009811128360193149, -1.7445605922164384, -0.8074585888421089, -1.321231697044468, -1.0595429953331943, 0.6395836486787274, -1.6178520926566768, -1.737206962775069, 0.11556600857939414, -0.7455673174058456, -0.7518198559707946, -0.12444798742630087, -0.5945064042464143, -0.5192470209755523, -0.5361666678641864, -1.4185675224502163, -1.626632819626457, -1.8381465868836337, 0.09099668028889796, -0.9648454754785775, -0.4654512012091269, -1.0127123132539384, -0.8446924843970769, -1.5749301873643968, -0.471705122245879, 0.20644255839296966, 0.7866524465521236, 0.5073412376314486, -0.2861096994814998, 0.04863501201768355, -0.5457169520674243], [0.9706116144791086, 0.05960817796149387, -0.056926979840507375, 1.4926901170745155, 0.4581585953519254, -0.0858422669474858, 0.08586867132502474, 0.1751443437697161, 0.5556263836092767, 1.2940122452867888, 1.1493292315736643, 0.14763699141961803, 1.09330378138155, 1.79136604811522, -0.4243945349624345, -0.3954061854117723, -0.33931723304996253, 0.47169514338783175, 0.5476720828184757, 0.4932824031042487, 0.23760273298069956, 0.273808654478391, -0.03592931263823984, -0.919492492123539, -0.8144381091580277, -0.04940045119462175, 0.9112848025727383, 1.695336591784431, 0.8029214686718961, 0.96592510941313, 0.3082610842790849, 1.2292683138130935, -0.5573384502612682, -0.02567470272654976, 1.4759455511083426, 0.40121892420715993, 0.34902867307313845, 0.5774750589217086, -0.11307719188727405, 0.42076443281432085, -0.30101247718692337, 0.5482437229388675, 0.268593468864716, 0.5195904603756707, 0.9146559453500926, 0.8416645045273083, 0.9807013436793623, -0.5269157707888323, 0.37856720146227807, 0.8954057380125002, 0.7520170635369272, 0.3264563961436323, -0.5146008450775681, 1.2151321808530207, 0.49672628629597765, -0.4524677510234367, 0.378170210606839, 0.31950197957892446, -0.19858868993558065, 1.7125507183733615, 1.8246094458653375, -0.6603050317614101, 1.440182521618451, 1.0421254493049887, -0.2125009201222421, 1.514459434677164, 0.7666189702076331, 0.5167083926372358, 0.47972960561349504, 1.8405088446538547, -0.010714099493694729, 0.6881901486586167, 0.30996315289044, 0.9912840879799452, 1.1203967245772195, 0.49105386622927183, 1.8396834270390174, 1.3279928191329777, 0.4539311371274248, -0.011419806914642061, 0.989985951705003, 1.7976040799405315, 1.2571410404460615, 0.4274913177293299, 1.870156630962328, -0.21878670129181432, 1.0117805633920613, 1.3053706038472204, 0.21374018872014847, 0.29496820978500826, 0.2942561078883854, 0.06528553317845123, 0.9819109667734772, 0.7258004668680569, 0.7468565367311056, 1.372727905607938, 1.8350908927123328, 1.1168235666512973, -0.030327662236048596, -0.6339406352967496, 1.8126045289287422, 0.9249714916752599, 0.41562371233950723, 1.4650394570356644, 0.5746312793679914, 0.7686322854275003, 1.0127347755242866, 0.002920008248262971, 0.9107899839535704, 1.159980883905102, 1.2377202511720078, 1.3498090503396543, 1.0204241520464288, 1.5723690327684314, 1.1352348448221974, -0.48241731674654864, -0.004385982840475184, 1.2488945875118107, 1.455555865627637, -0.7225132213257375, 0.14056877971064735, -0.3457582960342316, 0.7800438120408715, 0.9457736782185475, -0.5841319463508121, 0.8580652639393447, 1.2570874440889255, 0.5508109021933656], [0.8824578802654377, 0.456513544138605, -0.1154309493921991, -0.6317178945030947, -0.032766336470485616, 0.3111172364725676, -0.5511139238295074, 0.2106855817698637, -0.646260251369186, -0.05918615150675726, -0.5441672121936929, 0.15458477934408715, -0.7794510197892962, -0.5644538666757163, -0.12660162373362382, -0.8640853425713888, -0.08700924325251935, -0.5240365290926134, 0.18365868962836565, -0.3284796422625679, -0.0893632908088915, -0.052986146598450884, 0.6708240757217994, 0.8031493079130798, -0.48357219000000984, 0.0929857432318422, -0.9536544344738558, 0.5560652390789478, -0.6628892052266693, -0.7288042564728281, -0.6366675170487103, -0.004439322963673648, -0.7124686689830666, -0.9892417864642692, -0.9016743410787378, -0.10960445264711681, -0.5031151175950197, 0.05270020755141114, -0.9759913249000658, 0.6213886041373924, 0.7034391873546313, -0.9867264418835247, -0.6093747119461081, -0.4679204817049636, 0.5405670695493896, -0.5096687505388391, 0.6898146455008765, 0.3572387208977619, -0.4914575633546734, -0.5048748454854085, -0.18044599397225825, 0.12132202307392428, 0.9501337567166639, 0.44731072272878514, -0.12810279081205814, 0.6174945687211306, -0.685361858508488, -0.4580454859115872, -0.6471620116993548, 0.17513709966688, 0.19916704209877803, 0.2574163207126752, -0.3308391998732135, -0.5173615990853079, 0.7748458866601939, -0.8061384694508542, -0.4441638581364924, -0.6564521412668829, 0.21758004039177883, -0.984136709904164, 0.8231228484753355, -0.8808050152532364, 0.07895973620504662, 0.9751654325067509, -0.7827718758396699, 0.7164599262111574, 0.0896256289075693, -0.4013109631119632, -0.14467694080064883, 0.06784082057023544, 0.5528877297104345, -0.530695317761658, 0.7963646992448113, -0.9960236496982516, -0.976137813412433, -0.3522675522488419, 0.6621401426273515, -0.036367993196152255, -0.39162935633502627, -0.762293556877998, 0.6884194590112053, -0.01783392496894071, -0.13894349955805108, 0.5701683063018708, -0.42611890608140957, 0.4013572976560769, 0.7722776664448207, -0.5899706129380033, 0.7353201645885321, -0.5564717065091236, -0.1545662373091119, 0.4898718390247872, 0.21478709996884704, -1.071366122848221, -0.9863491302543627, -0.9671484956405306, 0.8872489830682584, -0.5312234510416171, 0.20241901414397517, -0.3481998955616322, 0.9044219658871628, 0.16858066667350324, 0.10228602347929931, 0.12844236213437218, -0.7828079417323267, -0.5724314414540521, -0.046360169781535635, 0.3290781896513423, -0.11785048843474696, 0.6255529659214416, -0.25087202539562103, -0.9332797851556462, -0.9620296545055238, -0.7935171216717629, 0.8237120647918454, 0.5675787164391923, 0.38246879219458757, 0.19597696905733844], [-0.24360916839149926, 0.8849605449161788, -0.20873625748677613, -0.9522013352336492, -0.11138975899653869, -1.4828959283497254, -0.031072389713566084, -1.3067936195328944, 0.11985727398683865, -1.8292508742779636, -0.6170607726065085, -0.07445635254710463, -1.3779233613723498, -0.8128329230688961, 0.5844725991492192, 0.7796732460163895, -0.2553410258779767, -0.6132207171215904, -1.1022164622707693, -1.0872547843128586, -0.34731121259969644, -0.6150796641580517, -0.28007341080629833, 0.22326031639625055, -0.4370458822447294, -1.8502296594326486, -0.8965899176048051, -0.5598010627887177, -1.028922322110846, -0.3656719355881166, -1.3243651659762996, -0.5631983820811092, 0.6606005031808106, -1.378963313327211, -0.7304523000475973, -0.8689131875431101, 0.24543286181013513, 0.5729840083327562, -1.5316466683898418, -1.3393247881883608, -0.40304434158191405, -0.6573230652623345, -0.09610969125129865, 0.06620854632345252, -0.1660894539844875, -0.7731055086363696, -0.7826577820383236, 0.059885513059612316, -0.8202690211493713, -0.7345954975890877, -0.32017370871802053, -1.0701344527292578, -0.62573731916551, -0.9513258673062861, -0.22698517895006773, -0.052444360535673695, -0.7924195127792568, -1.5543639282144732, -0.4627303069389761, -0.8049593468687792, -0.17306561626486083, -0.4890816226702057, -1.3298704641160686, -1.8165834727715948, 0.663756174525252, -0.3134185363210061, -0.8093702584123317, -0.6455510803856762, -0.4590029277370213, -0.24568671018091076, -0.8280351131012593, -0.22170801975574914, -0.10972845487223357, 0.6224088133262486, -1.7753622872654966, -1.1376858654908157, 0.010862275238536015, -1.6288903125918843, -1.1632726328234357, -0.4591610742575234, -0.09348204436151805, 0.0969546627656872, -0.34698869063188, -0.270450374529755, -0.0051486589202407555, 0.43481147285773947, -0.9589432258431598, -1.3834983370068552, -1.3443778076656558, -1.2121553957199758, -1.7132743832530597, -1.2529553897155317, -0.8141244693631386, -0.3632467791919173, -0.14313456294685342, -1.6098513400427423, -1.0971831087641666, -0.23695416504840663, -0.735577533529038, -0.9810639502309899, -1.574927425864059, -1.2404405966646734, 0.4304055114899368, -1.7439718340127748, -0.05531618131131216, -0.14546988316586965, -0.7353613706092305, -1.6283767170597245, -1.789491801851707, -0.4454667883427543, -1.6788044906217594, -1.6523169907251005, -1.1635851142420026, -0.6783264165064766, -0.8473989345061959, -0.42885867299650804, -1.3839583499781514, -1.6736851884785162, -0.26269598900579233, 0.9950644455208557, -1.2862755142993165, 0.7832429798724627, 0.6788537756164434, 0.16644208851299536, 0.6412243749690305, -0.10121778762537681, -0.6960485627425798, -0.006757079665575705], [-0.2381518555201444, 0.7472414915649377, 0.6548545795762939, -1.3623930430416977, 0.2689753487977452, 0.1497875232321277, -1.0624881349541164, -0.3311326786333453, 0.4851271857259838, 0.7663697455052865, -0.33729616809204277, 0.43172793917490093, 0.2915373820620618, -0.9955257779402616, -0.9022955486111628, 0.18405637645047324, 0.3882293721057479, -0.9820160303496969, -0.19969306555597985, -0.6020328566630151, 0.34364739012559387, 0.14894460401423598, 0.2119852657006549, -0.45701546621640743, 0.6419951876382284, -1.051308276244534, -0.876928423738121, -0.019911272792102367, -1.3301107092691025, 0.36150952233087597, -0.6224266659132406, -0.6133421362401232, 0.1501465573135421, 0.3076722737081457, -0.0486928296526183, 0.15975686462532349, 0.1633545856456955, -0.9640967719197959, -0.25340445250811494, -0.34786307776969233, 0.9088712870044897, -0.39299651137148706, 0.7277749336386172, 0.7618478531311232, -0.0885720427740162, -0.907208284126821, 0.5047639857260411, 0.2547561413001145, 0.9422951763513603, 0.03861622270905321, -0.6563042308033802, -0.05150906521429692, -0.7073754408043313, 0.3092243045578945, 0.7832979757834798, 0.7341345238046622, -0.10527521782099036, -0.629441971536981, 0.026031706513138797, -0.2960769190998181, -0.7273564909768013, 0.6338928835223003, -0.8670317461986639, 0.6268469746420026, 0.7685036721689944, 0.06082505056344224, 0.6948642868555475, 0.9022872234894821, -0.8620064982430801, -0.4905579626482977, -0.7841455936079218, 0.03946410117183464, -0.5878467026148911, 0.5531704205576777, 0.9441956562050272, -0.49769613060315065, 0.2808115656407971, -0.014434604098367462, -0.05196635472312556, 0.9043147119196577, -0.37359363184045674, -0.839801833380172, 0.9320505606658194, -0.004531752749007749, -1.2868582026740547, 0.2971558028111281, 0.6629144894087989, -1.0367689232483852, -0.25838160350464506, 0.7844678013045426, -0.03234850877370895, -0.006374068580921117, 0.4931491540549004, -0.048753051438294726, -0.7580471310758942, 0.4991646587924024, 0.7646933515462087, -0.7326059263415102, -0.5945169054153338, -0.4291644997442159, 0.437825568732453, -1.4431758322134987, 0.280121299209646, -0.7696932990863297, -0.5068785584158846, 0.04208509169413305, 0.6646962463382531, -0.1810888212199028, 0.053204779129972714, -1.0495444032255385, -0.17857316345116375, -0.2541636797738001, -0.5693048565798444, 0.7337641121406182, -0.8430199904454037, -0.9916548643068785, 0.29299932250320865, -0.08664059543642223, 0.26785059898724345, -0.25128441581767125, -0.9103609100518583, 0.09767686168392564, 0.7362683689694516, 0.7383819073916653, -0.2257962491945662, 0.1632619367484327, 0.10528828984244609, 0.34757795616728004], [-0.23965960730935973, -0.7698951049092007, -1.3863271464711613, -0.4092097739379572, -0.8367514818513352, -0.3510762869562136, -0.245647558652651, -0.5062004179944877, -0.4093852081053466, -1.8423074909924215, -0.27564668287595095, 0.1328962467533304, -0.6806172690403312, -0.568278194274619, 0.4392704272497179, 0.26574506485616634, 0.42095658083686094, -0.6784591800469836, -0.3457316734093634, -1.3291250902242495, -0.48071942084963015, -0.1335165000048708, -0.48242359581558425, -0.6583198068356158, 0.13539340121992138, -1.7529489256757256, 0.28933750296340044, -0.7873445132176066, -1.1761473083061655, 0.7473224970393484, -0.3219954000995491, -1.8348009048029208, -0.5765167395500481, 0.05625340356475332, -1.2693557646936071, -0.8488184349621554, 0.4327720210441999, 0.5006561794226412, -1.6239149086446922, -1.0118607902376835, 0.29896122690303395, 0.889824912210019, -0.9232380205903743, 0.8222305783936483, 0.7119797444583529, 0.8910171297708207, 0.26339119956332446, 0.5344274957263082, 0.8053057984749783, -1.851188428044012, 0.6378123471021595, -0.8073494899155906, 0.6903582839970159, -1.7970416552905566, -0.5172173203803295, -0.5897227520733241, -0.8597768234409551, -1.1696863008951113, 0.3005896786107045, -0.5102521028831707, -0.7489209028041828, -0.37284774114911556, -0.033497078085426533, -0.06841283100491238, -0.7605094438048206, -1.2195524424906778, 0.8402216673223075, -0.6487626342623063, -0.9219906293360248, -0.009280657269923023, -0.6187683165221465, -1.8771420696320753, -1.3864765903773668, -0.08338284051468303, -0.871508458921783, -1.85560319598179, -1.5304598033258106, -1.6978410063735307, -1.088235024666946, 0.5889554179864356, -0.6736138055770984, -0.8876099140396279, -0.8115414536450504, -0.32718643089018207, -1.7025103771390577, 0.7407011118813343, -1.7703462153476726, -0.1955082289613483, -1.4786261729284575, -1.7771053582740368, -1.7325134233517694, -0.16075564749545956, -1.0869523206258325, 0.10628192675963187, 0.0757486939732175, -0.21498620673836663, -0.92135859956617, -0.48267534901151493, 0.05721175097318789, -0.8166714433932281, -1.1037251932819474, -0.4109889759961698, -0.4034973081382318, -0.6410584140059287, 0.025666771515110317, -0.6342268120980021, -1.2638187950707904, -0.9582362442884129, -0.38064221018087363, 0.05185959243450904, -0.6308128491412792, -1.0615372086916146, 0.11659299195498343, -1.0174386433282179, -1.4685640653350438, 0.07427775177912865, -0.7888454580689437, -0.8182987557739779, -1.7347958785247926, -0.7837510528888463, -1.0200001524699123, -0.724586219309781, 0.002779048399598194, -0.48793149902045574, 0.164404593888678, -0.5276243014335316, -1.1276697110423513, -1.0871384106561723], [-0.7483888583645286, -0.6863190686260552, -0.29539691878762614, -0.20778044880876104, 0.3052756976691652, -0.2516223517547599, 0.2594639753623956, 0.3441367367246276, 0.038175657355212556, 0.4661736021752789, 0.04678715159728449, 0.6740961190407897, -0.941846125079479, -0.9850910015615917, 0.5398734220679164, 0.595494721408824, -0.7755801887103324, -0.20866775228893766, -0.3816877920448817, -0.22077321820034573, 0.5318669773799662, 0.4120398215228099, 0.5880252338471852, 0.31819941878739466, -0.7985654692267414, -0.4274700810734824, -0.8170914708368662, -0.8255897917328346, 0.9435653263401841, -0.8979537948841121, 0.6665165896531074, -0.3230616577957649, -0.2642670521391668, -0.21413571675899545, -0.8016332294647318, 0.1034903080359351, 0.5318388011847435, -0.7396498942659697, 0.9930041108814818, -0.2806753809808045, 0.5568845183084101, 0.369590828548088, 0.6073287733990842, -0.34774373388066593, -0.9446800944226421, 0.5127757526615997, -0.5339234020391828, 0.7516491554282896, 0.4182022851978844, 0.5375171066922496, -0.32892810129754024, 0.015841749018861647, 0.1923942667623013, 0.14165978969108284, -0.908822065407043, -0.4556762715997198, -0.4093248829074301, 0.9113422163051601, 0.3467227774929853, -0.8025519434135906, -0.47625052859561723, -0.49681569604570286, -0.03515210502035983, -0.3923877693421719, -0.43973486481989044, 0.3721775482744937, -0.5124058400634142, 0.34438488772995013, 0.1478690448361947, -0.2088715434381337, 0.3044016391590163, 0.46485793478194226, -0.7889149632531303, 0.6522251455840553, -0.8644335915220258, 0.44006231183191163, -0.12653921174386196, 0.9599426430028402, 0.3536801873217243, -0.33910757049833573, -0.4770619614656066, 0.3584068673314274, 0.4511846915575085, 0.4773998656254502, 0.4108687297989405, -0.5555977090507351, -0.6411458963197666, -0.48782344721432, -0.5486530435659634, -0.5884145050712258, -0.10558100886450143, -0.27748088500704265, -0.023035704357843044, -0.44004440269923734, -0.7847191666028484, -0.4049474052821688, -0.08686273645624158, -0.237931695589679, -0.5178643246449948, -0.5724884287557093, -0.1328193497958577, 0.4628286246502331, 0.9798419723660361, 0.41059724520633545, 0.7631376197070039, -0.48794630740506323, 0.30149441072451577, 0.290272844045423, -0.17286134440845796, -0.32567628272836463, 0.7468053693964186, 0.5127940175605482, 0.7355335869196963, -0.34040390104979207, -0.8115494974477367, 0.13894536606990604, -0.3018578836772314, -0.2688688421828425, -0.09608379788759996, 0.7666632717600081, 0.07265323184620474, -0.036629703538676894, 0.9058448631254785, -0.29293774895023184, -0.7359087103863173, 0.9862338500812049, 0.4100218720901699, 0.5769040603942436], [0.43594621600951416, 0.9462996079110895, -0.77750668514641, -0.2574479999642617, 0.44158345432018764, -0.32401745560924666, -0.4259497175803558, 0.7229234555670807, -0.11870885342115955, 0.7037609204373942, -0.18569316133692376, 0.2695501871299408, 0.8701502167100706, -0.4190749103867793, -0.9734717253314482, 0.04438817098521497, -0.6539187082718458, -0.7392884950427139, 0.13421530850621768, -0.8662137368433879, 0.20044024985759634, 0.5653757875135951, 0.15987500021316303, 0.4731206991194796, 0.569495959155597, -0.18905120409429976, 0.866933216801548, 0.12875174392545896, -0.6515605475873654, 0.6787340923428054, 0.35923815336524, -0.00269016140971255, 0.6826090619272478, -0.4935563551083238, 0.9648218467441737, 0.9146070615019721, -0.7482942385393747, -0.0035346910407423326, 0.7861376788899781, 0.8912473782439398, 0.3141464531229523, -0.07275530559926757, -0.4676014676520781, 0.38081996773034676, 0.5377650156854485, 0.6707851084308603, -0.8773662070270614, -0.10763362238035534, 0.7036230077625847, 0.5645847120763228, 0.39160988655672213, 0.8546085585917597, -0.626608423811085, 0.5106626311380342, -0.43081097385745976, -0.09608893836923826, 0.2978296100662208, 0.9473786775585709, -0.22823520918847695, -0.5860485577499117, 0.8935025665691797, -0.4332682511484367, 0.16310772745236835, -0.8901599441180187, 0.06582144510867938, 0.6742754887210805, -0.31803566115146675, 0.07923861898035299, -0.10387047883111364, -0.2531901257040838, 0.7729382292593456, -0.7139027119331722, -0.8053591018664035, 0.5813857277321539, 0.06470215799081053, -0.489881066067304, 0.3479594603744833, -0.25366956511089567, 0.21760102653354463, 0.28096175613076824, -0.5129277431459532, 0.11943673901248578, 0.6044409410251139, 0.7644270232594957, 0.5864587979568204, 0.05332712236820436, -0.5692803182917359, 0.7120275756720531, 0.8282009185569587, -0.09923445606457874, -0.5081290383624616, -0.48629517767212965, -0.620170741820829, 0.21335889837305402, 0.940561848916718, -0.5453148386996413, -0.6644662996829693, 0.2228983360282693, -0.3332265063705763, -0.8987942762652026, 0.5365298502151772, -0.3849188621716355, -0.41898384576143655, 0.025821869839171303, 0.6235885975509853, -0.4689496608060635, 0.812833174397168, 0.6815489745244226, 0.05029693767828456, -0.4204118935305766, -0.8666477654562041, 0.5846963725844954, 0.9066564292582691, 0.8755393130808523, -0.7214438145786605, 0.20774051558808027, -0.26760561731812227, 0.2891483080130961, -0.022638324756510196, -0.9904715327593803, -0.6956689987957341, -0.11355494247111264, -0.3354919629576465, 0.8855973682728031, 0.7836201691361449, 0.09127808464416498, -0.13436643597404563, 0.9216668436531396], [0.16153180207168327, 0.5910147005991835, 0.5664546984031733, 0.32280885243185004, 0.16927933254538227, -0.06179703940505868, 0.6986698418562564, -0.6012919590479388, 0.5197388209210754, 0.7306625511216025, 0.185508339087851, 0.041333578155364745, 0.11571139090780552, -0.10090276664808252, -0.7161201641931849, 0.6434722815071046, -0.05227365126757011, -0.284974115859195, -0.5259735177579185, 0.844848967912524, -0.2769183774919881, 0.5844208225333802, -0.9368508791719696, 0.6604873135371976, 0.9024138568404301, -0.7263958575513314, -0.23615751402841512, -0.4143972123175548, -0.47701159677325505, 0.792418757174721, 0.06777914258714295, -0.14989230531063746, -0.5576966863569381, -0.5174031745431763, 0.9412399263146356, 0.11145150538961116, -0.5522066545818152, -0.6556315772133039, -0.13915771052600015, -0.20434959502227348, -0.6017202085926845, -0.05368918375461651, 0.5055973453371303, 0.10780942636575475, 0.6797489833337087, -0.4068299390640864, -0.31897737606702936, 0.13182838510182604, -0.3549958811512828, -0.8479604286129695, -0.19009078462946616, 0.34322329563339543, 0.7111217637986365, -0.45025994922008894, 0.33124371058974367, -0.48703066521416405, -0.4345176661949004, 0.795826906157972, 0.6069776113862524, 0.759695016847137, 0.409537002562275, 0.11125239390653441, 0.08215865452893541, 0.19182034995322958, 0.35302465794049964, -0.9921883661478761, 0.19765429978358462, 0.8597112143176447, -0.7815760088504147, -0.5027148887239026, 0.08502873601260896, -0.6374084179484831, -0.6161124282961432, 0.17197338982332622, -0.8493035330689588, 0.3952303601804265, 0.40534651387382087, -0.5266258216588878, -0.9153145014357257, 0.05049811538231208, 0.4647253153170341, 0.5051036359320796, -0.4336622629589536, 0.550301185390292, -0.37677116669950134, -0.8391851485541328, 0.4397891301176826, -0.9714718406497246, 0.9537047415522972, -0.48360285890411425, -0.6473905042489984, -0.9568798055742144, -0.07627503259682454, -0.2087585318618105, -0.7108069648419542, 0.04278939363889558, 0.7839396591857619, 0.3318601538741092, -0.9501388775115407, 0.980280870888194, -0.5153212408843781, -0.5442737834589896, 0.8571714835972222, 0.06633515338834704, 0.4983736050577675, 0.826001491060028, -0.8496975644956225, 0.9003546267570455, 0.8477702852469006, 0.993819927522108, 0.49372936586354754, 0.5714063765691418, 0.7135588743140394, -0.8741788356043159, 0.9784041393248569, 0.5427543511588926, 0.8365939683881729, -0.19467374062645695, 0.5843617367990664, -0.7957080267053473, -0.9812688826296614, -0.6762514522519723, -0.7103711411477529, -0.9567007263858427, -0.3397293613722059, -0.027490687052237117, -0.263843544415085, -0.6270590493389594], [-0.1847350061397721, -0.24913389055820323, -0.25742271311873194, -1.4528808583015658, -0.4322612282036191, 0.09129599597198164, -0.6775834530109199, -1.3477335155527637, -0.8118452819842905, 